{"learner":{"attributes":{"scikit_learn":"{\"_estimator_type\": \"classifier\"}"},"feature_names":["V1","V2","V3","V4","V5","V6","V7","V8","V9","V10","V11","V12","V13","V14","V15","V16","V17","V18","V19","V20","V21","V22","V23","V24","V25","V26","V27","V28","scaled_amount","scaled_time"],"feature_types":["float","float","float","float","float","float","float","float","float","float","float","float","float","float","float","float","float","float","float","float","float","float","float","float","float","float","float","float","float","float"],"gradient_booster":{"model":{"cats":{"enc":[],"feature_segments":[],"sorted_idx":[]},"gbtree_model_param":{"num_parallel_tree":"1","num_trees":"100"},"iteration_indptr":[0,1,2,3,4,5,6,7,8,9,10,11,12,13,14,15,16,17,18,19,20,21,22,23,24,25,26,27,28,29,30,31,32,33,34,35,36,37,38,39,40,41,42,43,44,45,46,47,48,49,50,51,52,53,54,55,56,57,58,59,60,61,62,63,64,65,66,67,68,69,70,71,72,73,74,75,76,77,78,79,80,81,82,83,84,85,86,87,88,89,90,91,92,93,94,95,96,97,98,99,100],"tree_info":[0,0,0,0,0,0,0,0,0,0,0,0,0,0,0,0,0,0,0,0,0,0,0,0,0,0,0,0,0,0,0,0,0,0,0,0,0,0,0,0,0,0,0,0,0,0,0,0,0,0,0,0,0,0,0,0,0,0,0,0,0,0,0,0,0,0,0,0,0,0,0,0,0,0,0,0,0,0,0,0,0,0,0,0,0,0,0,0,0,0,0,0,0,0,0,0,0,0,0,0],"trees":[{"base_weights":[-1.261703E-7,1.2233931E1,-8.000218E-1,5.6567783E0,-8.54841E-1,-5.6681372E-2,9.9943924E-1,3.02002E-1,-8.9663106E-1,-1.4233716E-1,2.9874858E-1,-9.346071E-1,-1.933821E-1,-5.594186E-1,1.8068749E-1,-1.0290303E-1,-9.4830114E-1,1.4341226E0,-8.022049E-1,-7.104911E-2,4.985147E-2,1.4897999E-1,-6.4865045E-2,4.710329E-3,-9.539669E-2,7.449577E-3,3.7596196E-1,1.1453682E-2,-9.266905E-2],"categories":[],"categories_nodes":[],"categories_segments":[],"categories_sizes":[],"default_left":[0,0,0,0,0,0,0,0,0,0,0,0,0,0,0,0,0,0,0,0,0,0,0,0,0,0,0,0,0],"id":0,"left_children":[1,-1,3,5,7,-1,-1,9,11,13,-1,15,17,19,-1,21,23,25,27,-1,-1,-1,-1,-1,-1,-1,-1,-1,-1],"loss_changes":[3.713055E4,0E0,1.3824384E2,9.486698E1,1.8380768E1,0E0,0E0,1.6902382E1,9.481506E0,1.1419057E1,0E0,3.80896E0,2.0766592E1,2.1617432E0,0E0,6.770691E0,1.9473267E0,1.7894964E1,1.8235168E0,0E0,0E0,0E0,0E0,0E0,0E0,0E0,0E0,0E0,0E0],"parents":[2147483647,0,0,2,2,3,3,4,4,7,7,8,8,9,9,11,11,12,12,13,13,15,15,16,16,17,17,18,18],"right_children":[2,-1,4,6,8,-1,-1,10,12,14,-1,16,18,20,-1,22,24,26,28,-1,-1,-1,-1,-1,-1,-1,-1,-1,-1],"split_conditions":[-3.62882E0,1.2233931E1,-1.4077241E0,1.6498943E-1,-1.6085801E0,-5.6681372E-2,9.9943924E-1,1.797201E0,2.4436917E0,1.1784174E0,2.9874858E-1,-9.7647464E-1,-1.0884872E-1,9.0952575E-1,1.8068749E-1,-5.161404E-1,-2.1599135E0,-2.4543527E-1,-6.846352E-1,-7.104911E-2,4.985147E-2,1.4897999E-1,-6.4865045E-2,4.710329E-3,-9.539669E-2,7.449577E-3,3.7596196E-1,1.1453682E-2,-9.266905E-2],"split_indices":[13,0,16,3,13,0,0,3,3,28,0,19,7,29,0,11,18,8,17,0,0,0,0,0,0,0,0,0,0],"split_type":[0,0,0,0,0,0,0,0,0,0,0,0,0,0,0,0,0,0,0,0,0,0,0,0,0,0,0,0,0],"sum_hessian":[3.7737054E2,1.4647257E0,3.7590582E2,2.3043246E0,3.736015E2,1.3034563E0,1.0008682E0,1.2808454E1,3.6079303E2,1.1802597E1,1.0058559E0,3.41996E2,1.8797037E1,1.03096075E1,1.4929894E0,5.677683E0,3.3631833E2,4.748305E0,1.4048732E1,9.30874E0,1.0008682E0,1.0075185E0,4.670164E0,1.8620805E0,3.3445624E2,3.6476824E0,1.1006225E0,1.689173E0,1.2359559E1],"tree_param":{"num_deleted":"0","num_feature":"30","num_nodes":"29","size_leaf_vector":"1"}},{"base_weights":[-2.4206393E0,-1.6194789E2,-7.829033E-1,-3.0725086E0,-2.0246828E1,7.802322E-1,-8.426252E-1,2.8036714E-1,-8.874393E-1,-1.5097305E-1,2.7932808E-1,-9.018406E-1,9.7117597E-1,-4.965837E-1,1.9268776E-1,-9.105598E-1,7.75953E-2,1.9974773E-1,-5.1084977E-2,3.3856444E-3,-8.6029075E-2,-9.484061E-2,-4.9340464E-2],"categories":[],"categories_nodes":[],"categories_segments":[],"categories_sizes":[],"default_left":[0,0,0,0,0,0,0,0,0,0,0,0,0,0,0,0,0,0,0,0,0,0,0],"id":1,"left_children":[1,3,5,-1,-1,-1,7,9,11,13,-1,15,17,19,-1,21,-1,-1,-1,-1,-1,-1,-1],"loss_changes":[9.135258E4,1.2672422E4,1.8479228E2,0E0,0E0,0E0,1.7666107E1,1.5641033E1,9.790405E0,1.0244165E1,0E0,5.548828E0,5.6476917E0,2.3217366E0,0E0,4.738159E0,0E0,0E0,0E0,0E0,0E0,0E0,0E0],"parents":[2147483647,0,0,1,1,2,2,6,6,7,7,8,8,9,9,11,11,12,12,13,13,15,15],"right_children":[2,4,6,-1,-1,-1,8,10,12,14,-1,16,18,20,-1,22,-1,-1,-1,-1,-1,-1,-1],"split_conditions":[-3.62882E0,-2.019825E0,-1.5992689E0,-3.0725086E0,-2.0246828E1,7.802322E-1,-1.6085801E0,2.1750016E0,1.9808875E0,2.252816E0,2.7932808E-1,1.7754894E0,5.5385274E-1,-1.1797306E-1,1.9268776E-1,1.6164529E0,7.75953E-2,1.9974773E-1,-5.1084977E-2,3.3856444E-3,-8.6029075E-2,-9.484061E-2,-4.9340464E-2],"split_indices":[13,9,16,0,0,0,13,3,16,28,0,21,7,25,0,3,0,0,0,0,0,0,0],"split_type":[0,0,0,0,0,0,0,0,0,0,0,0,0,0,0,0,0,0,0,0,0,0,0],"sum_hessian":[3.4914215E2,2.5532374E0,3.4658893E2,1.0172377E0,1.5359998E0,1.4987195E0,3.450902E2,1.3040995E1,3.320492E2,1.1932678E1,1.1083163E0,3.3000696E2,2.0422525E0,1.0883438E1,1.0492404E0,3.2875577E2,1.2511871E0,1.001153E0,1.0410995E0,4.7958927E0,6.0875454E0,3.002428E2,2.8512966E1],"tree_param":{"num_deleted":"0","num_feature":"30","num_nodes":"23","size_leaf_vector":"1"}},{"base_weights":[-8.008584E-1,-9.3414104E-1,2.7295487E-2,-4.236304E0,-8.879347E-1,5.5393505E-1,-2.9018064E0,-8.358772E-3,-7.4795806E-1,1.9129817E-1,-9.233137E-1,2.6357198E0,-3.3446622E-1,-8.2268095E-1,-1.9198489E-1,1.9327746E-1,-4.0157068E-1,-2.9847315E-2,-9.365549E-1,1.1514913E0,6.9872375E0,-2.7401233E-1,-1.3868256E-1,8.301862E-1,-1.8052904E-1,-7.2103107E-1,8.12926E-2,-7.597873E-2,1.4952867E-1,-6.429686E-1,-9.550777E-1,2.9914197E-1,5.01853E-1,8.493663E-1,1.9943567E-1,2.6557052E0,-5.7585007E-1,2.3234462E-2,9.860965E-2,-2.9718858E-4,-8.383071E-2,1.2416115E-1,-8.374127E-2,-9.587702E-2,-7.3289685E-4,-5.030491E-2,1.2329195E-1,6.138559E-3,5.286796E-1,1.4879623E-1,-7.197229E-2],"categories":[],"categories_nodes":[],"categories_segments":[],"categories_sizes":[],"default_left":[0,0,0,0,0,0,0,0,0,0,0,0,0,0,0,0,0,0,0,0,0,0,0,0,0,0,0,0,0,0,0,0,0,0,0,0,0,0,0,0,0,0,0,0,0,0,0,0,0,0,0],"id":2,"left_children":[1,3,5,7,9,11,13,-1,-1,15,17,19,21,-1,23,-1,25,27,29,31,33,-1,35,37,-1,39,-1,-1,-1,41,43,-1,45,-1,-1,47,49,-1,-1,-1,-1,-1,-1,-1,-1,-1,-1,-1,-1,-1,-1],"loss_changes":[3.7641617E1,4.1032715E1,7.59832E1,5.036728E1,1.1279648E1,7.8017166E1,1.06760574E2,0E0,0E0,1.1161105E1,3.3051453E0,7.325222E1,1.3805987E1,0E0,1.1392833E1,0E0,3.818735E0,6.866301E0,8.9538574E-1,1.1148908E1,5.65567E0,0E0,3.6841488E1,1.7707181E-1,0E0,5.976441E-1,0E0,0E0,0E0,8.19787E0,8.9956665E-1,0E0,7.2491684E0,0E0,0E0,2.7584105E1,8.736817E0,0E0,0E0,0E0,0E0,0E0,0E0,0E0,0E0,0E0,0E0,0E0,0E0,0E0,0E0],"parents":[2147483647,0,0,1,1,2,2,3,3,4,4,5,5,6,6,9,9,10,10,11,11,12,12,14,14,16,16,17,17,18,18,19,19,20,20,22,22,23,23,25,25,29,29,30,30,32,32,35,35,36,36],"right_children":[2,4,6,8,10,12,14,-1,-1,16,18,20,22,-1,24,-1,26,28,30,32,34,-1,36,38,-1,40,-1,-1,-1,42,44,-1,46,-1,-1,48,50,-1,-1,-1,-1,-1,-1,-1,-1,-1,-1,-1,-1,-1,-1],"split_conditions":[1.6681553E0,-3.62882E0,1.0566767E0,4.7838303E-1,-1.7862202E0,-2.4583282E0,-2.7284944E-1,-8.358772E-3,-7.4795806E-1,-1.4043777E0,-3.1945734E0,-3.62882E0,-2.400868E0,-8.2268095E-1,1.0711981E0,1.9327746E-1,-1.9004066E0,3.502822E-1,-1.5010213E0,-1.1652891E-1,2.2469789E-1,-2.7401233E-1,-1.478966E0,-3.1202346E-1,-1.8052904E-1,-7.915843E-1,8.12926E-2,-7.597873E-2,1.4952867E-1,-6.0657686E-1,1.6164529E0,2.9914197E-1,4.1357336E0,8.493663E-1,1.9943567E-1,1.0792305E0,-8.6477035E-1,2.3234462E-2,9.860965E-2,-2.9718858E-4,-8.383071E-2,1.2416115E-1,-8.374127E-2,-9.587702E-2,-7.3289685E-4,-5.030491E-2,1.2329195E-1,6.138559E-3,5.286796E-1,1.4879623E-1,-7.197229E-2],"split_indices":[3,13,26,4,13,11,25,0,0,9,2,13,8,0,24,0,13,3,12,7,15,0,13,27,0,14,0,0,0,7,3,0,3,0,0,17,19,0,0,0,0,0,0,0,0,0,0,0,0,0,0],"split_type":[0,0,0,0,0,0,0,0,0,0,0,0,0,0,0,0,0,0,0,0,0,0,0,0,0,0,0,0,0,0,0,0,0,0,0,0,0,0,0,0,0,0,0,0,0,0,0,0,0,0,0],"sum_hessian":[3.3979208E2,2.9257693E2,4.7215157E1,2.7860804E0,2.8979083E2,4.070709E1,6.508069E0,1.6715666E0,1.1145138E0,9.0583935E0,2.8073245E2,1.15874605E1,2.9119629E1,1.5082741E0,4.999795E0,1.7266225E0,7.3317704E0,4.147243E0,2.765852E2,9.583359E0,2.0041018E0,1.2134844E0,2.7906145E1,3.3577666E0,1.6420281E0,6.126558E0,1.2052127E0,3.1442196E0,1.0030233E0,1.853395E1,2.5805127E2,1.5600848E0,8.023273E0,1.0009465E0,1.0031552E0,3.0886436E0,2.4817501E1,1.2096359E0,2.148131E0,1.004083E0,5.1224747E0,1.2297359E0,1.7304214E1,2.5703818E2,1.0130837E0,3.5101807E0,4.513093E0,2.0704553E0,1.0181884E0,1.0085102E0,2.380899E1],"tree_param":{"num_deleted":"0","num_feature":"30","num_nodes":"51","size_leaf_vector":"1"}},{"base_weights":[-7.74337E-1,-9.201553E-1,4.0579684E-2,-3.1247165E0,-8.7729645E-1,3.9936814E0,-2.7451578E-1,-2.8620416E-2,-5.071465E-1,1.8450326E-1,-9.1567624E-1,6.0020745E-1,3.0135859E-2,2.282832E-1,-2.574719E0,-6.7199713E-1,1.1783245E0,-1.6792808E-2,-9.301063E-1,1.7121549E0,-3.9912736E-1,-4.8626128E-1,7.907956E-2,-1.2479983E-4,-8.0411814E-2,3.1840512E-1,-4.5451492E-1,1.4973588E-1,-7.558234E-2,-9.406072E-1,-4.011812E-1,3.3227232E0,6.444621E-1,-2.5899127E-1,-1.6716425E-1,-9.202533E-2,6.0041856E-2,-1.4465676E-4,-6.2483758E-2,-9.444084E-2,-2.5709297E-3,9.879195E-2,-8.242707E-2,5.335597E-1,-2.2581073E-2,1.0240068E-1,-7.937645E-2,2.4329375E-1,-6.189538E-2],"categories":[],"categories_nodes":[],"categories_segments":[],"categories_sizes":[],"default_left":[0,0,0,0,0,0,0,0,0,0,0,0,0,0,0,0,0,0,0,0,0,0,0,0,0,0,0,0,0,0,0,0,0,0,0,0,0,0,0,0,0,0,0,0,0,0,0,0,0],"id":3,"left_children":[1,3,5,7,9,11,13,-1,-1,15,17,-1,-1,19,21,23,25,27,29,31,33,-1,35,-1,-1,-1,37,-1,-1,39,41,43,45,-1,47,-1,-1,-1,-1,-1,-1,-1,-1,-1,-1,-1,-1,-1,-1],"loss_changes":[3.783838E1,2.2757477E1,6.2429855E1,2.4830395E1,1.101358E1,2.5624695E1,5.4413776E1,0E0,0E0,9.402419E0,3.3178864E0,0E0,0E0,3.7095337E1,5.1567165E1,5.3692484E-1,1.7971931E1,6.815029E0,1.02742E0,1.8169758E1,1.3948154E1,0E0,3.0985281E0,0E0,0E0,0E0,2.8125763E-1,0E0,0E0,8.356018E-1,4.7327685E0,3.311924E1,5.3673053E0,0E0,3.2821785E1,0E0,0E0,0E0,0E0,0E0,0E0,0E0,0E0,0E0,0E0,0E0,0E0,0E0,0E0],"parents":[2147483647,0,0,1,1,2,2,3,3,4,4,5,5,6,6,9,9,10,10,13,13,14,14,15,15,16,16,17,17,18,18,19,19,20,20,22,22,26,26,29,29,30,30,31,31,32,32,34,34],"right_children":[2,4,6,8,10,12,14,-1,-1,16,18,-1,-1,20,22,24,26,28,30,32,34,-1,36,-1,-1,-1,38,-1,-1,40,42,44,46,-1,48,-1,-1,-1,-1,-1,-1,-1,-1,-1,-1,-1,-1,-1,-1],"split_conditions":[1.6681553E0,-3.62882E0,-1.6006091E0,-1.2562153E0,-1.7862202E0,-6.646801E-1,1.0566767E0,-2.8620416E-2,-5.071465E-1,-4.046725E-2,-3.1945734E0,6.0020745E-1,3.0135859E-2,-2.6738498E0,-2.2281666E-1,-1.4971273E-1,-8.772624E-1,-1.7866957E-1,8.320207E-1,2.382632E0,-1.1783108E0,-4.8626128E-1,-1.6747533E-1,-1.2479983E-4,-8.0411814E-2,3.1840512E-1,-5.5232066E-1,1.4973588E-1,-7.558234E-2,3.0281188E0,-8.563275E-1,8.9576535E-2,-3.7453694E0,-2.5899127E-1,-1.6085801E0,-9.202533E-2,6.0041856E-2,-1.4465676E-4,-6.2483758E-2,-9.444084E-2,-2.5709297E-3,9.879195E-2,-8.242707E-2,5.335597E-1,-2.2581073E-2,1.0240068E-1,-7.937645E-2,2.4329375E-1,-6.189538E-2],"split_indices":[3,13,7,11,13,11,26,0,0,28,2,0,0,11,25,26,9,11,20,10,23,0,25,0,0,0,6,0,0,6,12,2,2,0,13,0,0,0,0,0,0,0,0,0,0,0,0,0,0],"split_type":[0,0,0,0,0,0,0,0,0,0,0,0,0,0,0,0,0,0,0,0,0,0,0,0,0,0,0,0,0,0,0,0,0,0,0,0,0,0,0,0,0,0,0,0,0,0,0,0,0],"sum_hessian":[3.1711105E2,2.688711E2,4.823997E1,3.756151E0,2.6511493E2,2.6994092E0,4.554056E1,1.9947152E0,1.7614357E0,9.115725E0,2.559992E2,1.3432242E0,1.3561851E0,3.8110733E1,7.4298296E0,5.0700507E0,4.0456734E0,4.0788813E0,2.5192033E2,1.0811596E1,2.7299137E1,3.5430086E0,3.886821E0,1.0004473E0,4.0696034E0,1.3892075E0,2.656466E0,1.0012904E0,3.077591E0,2.4625305E2,5.6672845E0,3.4680836E0,7.3435125E0,1.6404687E0,2.5658669E1,1.0702093E0,2.8166118E0,1.0013386E0,1.6551274E0,2.4520203E2,1.0510185E0,1.0114493E0,4.655835E0,1.8915266E0,1.5765572E0,6.0380836E0,1.3054292E0,3.1492512E0,2.2509417E1],"tree_param":{"num_deleted":"0","num_feature":"30","num_nodes":"49","size_leaf_vector":"1"}},{"base_weights":[-7.489423E-1,-9.052144E-1,5.2409288E-2,-2.4667978E0,-8.6587346E-1,3.4974883E0,-2.4332106E-1,-5.884757E-3,-3.5352138E-1,1.7231847E-1,-9.0740335E-1,5.7873577E-1,1.3630631E-2,2.240024E-1,-1.9971997E0,9.203773E-1,-8.006111E-2,-4.566874E-3,-9.231078E-1,1.6408199E0,-3.818002E-1,-3.0542922E0,6.885419E-2,2.4576042E0,-5.09152E-1,-7.499164E-2,1.4574063E-1,-5.8516747E-1,-9.452884E-1,6.4449435E-1,3.5479043E0,-1.0074854E0,4.2290503E-1,-4.5996228E-1,5.698001E-2,-5.1804896E-2,4.2108688E-1,-6.7470856E-2,-1.1097386E-4,1.1481738E-1,-8.07563E-2,-1.0103405E-2,-9.4964854E-2,1.6269723E-1,-2.3322491E-2,4.4797817E-1,5.2432846E-2,-3.31024E-1,-6.0375806E-2,-5.2950986E-2,3.9592877E-1],"categories":[],"categories_nodes":[],"categories_segments":[],"categories_sizes":[],"default_left":[0,0,0,0,0,0,0,0,0,0,0,0,0,0,0,0,0,0,0,0,0,0,0,0,0,0,0,0,0,0,0,0,0,0,0,0,0,0,0,0,0,0,0,0,0,0,0,0,0,0,0],"id":4,"left_children":[1,3,5,7,9,11,13,-1,-1,15,17,-1,-1,19,21,23,-1,25,27,29,31,33,-1,35,37,-1,-1,39,41,43,45,47,49,-1,-1,-1,-1,-1,-1,-1,-1,-1,-1,-1,-1,-1,-1,-1,-1,-1,-1],"loss_changes":[3.721353E1,1.3124863E1,5.1156895E1,1.4105167E1,1.0669983E1,2.9755707E1,3.8484985E1,0E0,0E0,8.174736E0,3.3224182E0,0E0,0E0,3.2850533E1,3.0109932E1,1.4969557E1,0E0,6.5592046E0,1.1754608E0,1.9438065E1,1.40757265E1,4.329467E1,0E0,1.8769909E1,3.409897E-1,0E0,0E0,7.414449E0,6.9467163E-1,7.909437E0,8.080563E0,1.2455333E1,4.4409485E1,0E0,0E0,0E0,0E0,0E0,0E0,0E0,0E0,0E0,0E0,0E0,0E0,0E0,0E0,0E0,0E0,0E0,0E0],"parents":[2147483647,0,0,1,1,2,2,3,3,4,4,5,5,6,6,9,9,10,10,13,13,14,14,15,15,17,17,18,18,19,19,20,20,21,21,23,23,24,24,27,27,28,28,29,29,30,30,31,31,32,32],"right_children":[2,4,6,8,10,12,14,-1,-1,16,18,-1,-1,20,22,24,-1,26,28,30,32,34,-1,36,38,-1,-1,40,42,44,46,48,50,-1,-1,-1,-1,-1,-1,-1,-1,-1,-1,-1,-1,-1,-1,-1,-1,-1,-1],"split_conditions":[1.6681553E0,-3.62882E0,-1.6006091E0,4.7838303E-1,-1.7862202E0,-6.634698E-1,1.0566767E0,-5.884757E-3,-3.5352138E-1,-7.8313306E-2,-3.1945734E0,5.7873577E-1,1.3630631E-2,-2.6738498E0,9.7037965E-1,5.233146E-1,-8.006111E-2,4.6259075E-1,-1.5010213E0,2.9093376E-1,1.2019374E-1,-1.9776362E-1,6.885419E-2,-2.0589137E-1,-4.9381223E-1,-7.499164E-2,1.4574063E-1,-6.0657686E-1,-2.1599135E0,1.8441153E0,4.236296E-1,-2.3062685E0,8.624681E-1,-4.5996228E-1,5.698001E-2,-5.1804896E-2,4.2108688E-1,-6.7470856E-2,-1.1097386E-4,1.1481738E-1,-8.07563E-2,-1.0103405E-2,-9.4964854E-2,1.6269723E-1,-2.3322491E-2,4.4797817E-1,5.2432846E-2,-3.31024E-1,-6.0375806E-2,-5.2950986E-2,3.9592877E-1],"split_indices":[3,13,7,4,13,13,26,0,0,25,2,0,0,11,28,15,0,3,12,29,0,25,0,20,9,0,0,7,18,1,14,8,1,0,0,0,0,0,0,0,0,0,0,0,0,0,0,0,0,0,0],"split_type":[0,0,0,0,0,0,0,0,0,0,0,0,0,0,0,0,0,0,0,0,0,0,0,0,0,0,0,0,0,0,0,0,0,0,0,0,0,0,0,0,0,0,0,0,0,0,0,0,0,0,0],"sum_hessian":[2.9578528E2,2.4740839E2,4.8376884E1,4.5635138E0,2.4284486E2,2.9685435E0,4.540834E1,1.7268014E0,2.8367124E0,9.219543E0,2.3362532E2,1.3363247E0,1.632219E0,3.6543545E1,8.864798E0,5.242637E0,3.9769058E0,4.016396E0,2.2960893E2,1.0433574E1,2.610997E1,6.262635E0,2.6021626E0,2.1796293E0,3.063008E0,2.9827626E0,1.0336334E0,1.5828637E1,2.1378029E2,7.732041E0,2.7015328E0,1.45471115E1,1.1562858E1,4.201792E0,2.0608435E0,1.0693108E0,1.1103185E0,2.0627577E0,1.0002503E0,1.3265792E0,1.4502058E1,1.2225777E0,2.1255771E2,3.2455208E0,4.4865203E0,1.6969192E0,1.0046138E0,1.0960923E0,1.3451019E1,9.779359E0,1.7834989E0],"tree_param":{"num_deleted":"0","num_feature":"30","num_nodes":"51","size_leaf_vector":"1"}},{"base_weights":[-7.1989965E-1,-8.8907284E-1,6.512771E-2,-2.0183473E0,-8.5359764E-1,2.2590897E0,-3.008277E-1,-2.1013705E-1,-2.9144472E-1,1.6260746E-1,-8.9845246E-1,5.668689E-1,2.974746E-1,2.4534068E-1,-1.5227197E0,1.0514772E-1,-1.4528398E-1,1.1325159E0,-5.484626E-1,-9.1149145E-1,2.2126414E-1,-5.3018725E-1,1.5781032E-1,1.8323802E0,-5.0228024E-1,-2.2442174E0,1.0309407E0,2.319554E0,-6.2726825E-2,4.958044E-2,-8.2356855E-2,-6.751516E-1,-9.711334E-1,9.988534E-2,-5.6081016E-2,-2.7252268E-4,-6.9394656E-2,-7.4775344E-1,2.6696568E0,5.032591E-1,-8.796628E-1,-3.0446439E0,-1.719761E-1,2.300693E-2,1.2496211E-1,3.496134E-1,-5.8329245E-4,-8.00132E-2,1.09265605E-2,-9.769444E-2,-9.345829E-3,9.2771836E-2,-1.9248073E-1,6.9572985E-2,4.4282794E-1,2.642415E-1,-4.5105826E-2,-2.4399164E-3,-9.365109E-2,-3.4921217E-1,-1.3340043E-2,7.0110366E-2,-1.3394265E-1],"categories":[],"categories_nodes":[],"categories_segments":[],"categories_sizes":[],"default_left":[0,0,0,0,0,0,0,0,0,0,0,0,0,0,0,0,0,0,0,0,0,0,0,0,0,0,0,0,0,0,0,0,0,0,0,0,0,0,0,0,0,0,0,0,0,0,0,0,0,0,0,0,0,0,0,0,0,0,0,0,0,0,0],"id":5,"left_children":[1,3,5,7,9,11,13,15,-1,17,19,-1,21,23,25,-1,-1,27,29,31,33,35,-1,37,39,41,43,45,-1,-1,-1,47,49,-1,-1,-1,-1,51,53,55,57,59,61,-1,-1,-1,-1,-1,-1,-1,-1,-1,-1,-1,-1,-1,-1,-1,-1,-1,-1,-1,-1],"loss_changes":[3.70009E1,7.4480896E0,4.102495E1,9.497723E0,1.0341995E1,4.71455E1,2.9703312E1,6.4587684E0,0E0,7.72662E0,3.3316345E0,0E0,6.8677053E0,3.7979637E1,2.758292E1,0E0,0E0,1.1240388E1,2.3096528E0,2.334198E0,2.5502121E0,3.6130512E-1,0E0,2.4068108E1,8.79752E0,1.7735783E1,3.6164594E-1,8.25658E0,0E0,0E0,0E0,4.5992928E0,7.6086426E-1,0E0,0E0,0E0,0E0,8.262944E0,2.44566E1,1.4755645E1,7.731905E-1,9.80114E0,5.145835E0,0E0,0E0,0E0,0E0,0E0,0E0,0E0,0E0,0E0,0E0,0E0,0E0,0E0,0E0,0E0,0E0,0E0,0E0,0E0,0E0],"parents":[2147483647,0,0,1,1,2,2,3,3,4,4,5,5,6,6,7,7,9,9,10,10,12,12,13,13,14,14,17,17,18,18,19,19,20,20,21,21,23,23,24,24,25,25,26,26,27,27,31,31,32,32,37,37,38,38,39,39,40,40,41,41,42,42],"right_children":[2,4,6,8,10,12,14,16,-1,18,20,-1,22,24,26,-1,-1,28,30,32,34,36,-1,38,40,42,44,46,-1,-1,-1,48,50,-1,-1,-1,-1,52,54,56,58,60,62,-1,-1,-1,-1,-1,-1,-1,-1,-1,-1,-1,-1,-1,-1,-1,-1,-1,-1,-1,-1],"split_conditions":[1.6681553E0,-3.62882E0,-5.1227015E-1,-1.2562153E0,-1.7862202E0,-8.3662474E-1,2.715412E-1,1.7406896E-1,-2.9144472E-1,4.7838303E-1,2.4949062E0,5.668689E-1,5.27822E-1,-1.5397455E0,9.7037965E-1,1.0514772E-1,-1.4528398E-1,-1.7314653E-1,-6.427612E-1,-4.6711722E-1,-2.0271534E-1,-9.35195E-1,1.5781032E-1,-5.724668E-1,-1.991378E-1,2.5316652E-2,1.1081123E-1,6.155948E-1,-6.2726825E-2,4.958044E-2,-8.2356855E-2,7.743123E-1,2.4548352E0,9.988534E-2,-5.6081016E-2,-2.7252268E-4,-6.9394656E-2,-2.365638E0,-1.161397E0,-1.0884872E-1,-9.889283E-1,-2.1259579E-1,-3.4129524E0,2.300693E-2,1.2496211E-1,3.496134E-1,-5.8329245E-4,-8.00132E-2,1.09265605E-2,-9.769444E-2,-9.345829E-3,9.2771836E-2,-1.9248073E-1,6.9572985E-2,4.4282794E-1,2.642415E-1,-4.5105826E-2,-2.4399164E-3,-9.365109E-2,-3.4921217E-1,-1.3340043E-2,7.0110366E-2,-1.3394265E-1],"split_indices":[3,13,7,11,13,15,27,27,0,4,6,0,16,13,28,0,0,2,14,13,15,8,0,23,28,25,23,15,0,0,0,3,18,0,0,0,0,11,5,7,23,21,2,0,0,0,0,0,0,0,0,0,0,0,0,0,0,0,0,0,0,0,0],"split_type":[0,0,0,0,0,0,0,0,0,0,0,0,0,0,0,0,0,0,0,0,0,0,0,0,0,0,0,0,0,0,0,0,0,0,0,0,0,0,0,0,0,0,0,0,0,0,0,0,0,0,0,0,0,0,0,0,0,0,0,0,0,0,0],"sum_hessian":[2.771737E2,2.2792369E2,4.925002E1,5.2395415E0,2.2268414E2,6.301054E0,4.2948963E1,2.1452382E0,3.0943036E0,9.302679E0,2.1338147E2,1.6110264E0,4.6900277E0,3.0234005E1,1.2714959E1,1.1408775E0,1.0043606E0,3.6844082E0,5.618271E0,2.1110909E2,2.2723875E0,3.2047882E0,1.4852394E0,9.217107E0,2.1016897E1,1.0008411E1,2.706548E0,2.0102987E0,1.6741095E0,1.004205E0,4.6140656E0,4.502218E1,1.660869E2,1.0004702E0,1.2719175E0,1.0001115E0,2.2046766E0,2.2844172E0,6.9326897E0,5.644234E0,1.53726635E1,6.881214E0,3.127197E0,1.020663E0,1.6858848E0,1.0005738E0,1.009725E0,3.8817406E1,6.204771E0,1.6488213E2,1.2047696E0,1.0300405E0,1.2543765E0,3.9239502E0,3.0087397E0,1.1955152E0,4.448719E0,1.0471891E0,1.4325475E1,5.7914934E0,1.0897208E0,2.017708E0,1.1094888E0],"tree_param":{"num_deleted":"0","num_feature":"30","num_nodes":"63","size_leaf_vector":"1"}},{"base_weights":[-6.928117E-1,-8.7253714E-1,7.464524E-2,-8.9472157E-1,5.264043E-1,2.0079503E0,-2.666338E-1,2.9181522E-1,-9.139657E-1,-6.1415132E-2,1.559443E-1,5.1646274E-1,2.3342791E-1,2.393591E-1,-1.3114563E0,1.434765E0,-1.5621158E-1,-2.315222E-1,-8.769502E-1,1.8829626E-1,-9.481832E-2,1.6561512E0,-4.7556993E-1,-1.9015187E0,1.0038983E0,2.3729943E-1,-2.4160467E-2,-5.8972645E-1,-9.67946E-1,-8.610881E-2,2.3512974E0,4.6690667E-1,-8.691615E-1,-2.4733346E0,-1.7365085E-1,2.191989E-2,1.2285254E-1,-8.422211E-2,-1.7414339E-2,-9.7434856E-2,-6.242449E-3,5.1287867E-2,4.3246278E-1,2.1294534E-1,-4.3048795E-2,-9.306714E-2,-3.7215915E-4,-2.810857E-1,-8.604765E-3,6.838479E-2,-1.2604465E-1],"categories":[],"categories_nodes":[],"categories_segments":[],"categories_sizes":[],"default_left":[0,0,0,0,0,0,0,0,0,0,0,0,0,0,0,0,0,0,0,0,0,0,0,0,0,0,0,0,0,0,0,0,0,0,0,0,0,0,0,0,0,0,0,0,0,0,0,0,0,0,0],"id":6,"left_children":[1,3,5,7,9,11,13,15,17,-1,-1,-1,19,21,23,25,-1,-1,27,-1,-1,29,31,33,35,-1,-1,37,39,-1,41,43,45,47,49,-1,-1,-1,-1,-1,-1,-1,-1,-1,-1,-1,-1,-1,-1,-1,-1],"loss_changes":[3.600537E1,7.0256042E0,3.3764633E1,5.0224457E0,5.584151E0,4.177926E1,2.3411194E1,1.0890944E1,8.612717E0,0E0,0E0,0E0,1.3401291E1,3.1458542E1,2.1594631E1,5.364904E0,0E0,0E0,4.696228E0,0E0,0E0,2.01852E1,8.159358E0,1.1257065E1,3.6188006E-1,0E0,0E0,5.209467E0,8.173981E-1,0E0,2.8257614E1,1.1073952E1,8.0002785E-1,6.858219E0,4.6051264E0,0E0,0E0,0E0,0E0,0E0,0E0,0E0,0E0,0E0,0E0,0E0,0E0,0E0,0E0,0E0,0E0],"parents":[2147483647,0,0,1,1,2,2,3,3,4,4,5,5,6,6,7,7,8,8,12,12,13,13,14,14,15,15,18,18,21,21,22,22,23,23,24,24,27,27,28,28,30,30,31,31,32,32,33,33,34,34],"right_children":[2,4,6,8,10,12,14,16,18,-1,-1,-1,20,22,24,26,-1,-1,28,-1,-1,30,32,34,36,-1,-1,38,40,-1,42,44,46,48,50,-1,-1,-1,-1,-1,-1,-1,-1,-1,-1,-1,-1,-1,-1,-1,-1],"split_conditions":[1.6681553E0,2.4949062E0,-5.1227015E-1,-1.5992689E0,-1.16664525E-2,-2.8117332E0,2.715412E-1,6.8030787E-1,-3.62882E0,-6.1415132E-2,1.559443E-1,5.1646274E-1,-8.149673E-2,-1.5397455E0,9.7037965E-1,-2.365638E0,-1.5621158E-1,-2.315222E-1,-4.6711722E-1,1.8829626E-1,-9.481832E-2,-8.2065785E-1,-1.991378E-1,2.5316652E-2,1.1081123E-1,2.3729943E-1,-2.4160467E-2,5.616571E-1,2.009801E0,-8.610881E-2,-1.0660402E0,-1.0884872E-1,2.3357172E0,1.3728137E-2,-3.4129524E0,2.191989E-2,1.2285254E-1,-8.422211E-2,-1.7414339E-2,-9.7434856E-2,-6.242449E-3,5.1287867E-2,4.3246278E-1,2.1294534E-1,-4.3048795E-2,-9.306714E-2,-3.7215915E-4,-2.810857E-1,-8.604765E-3,6.838479E-2,-1.2604465E-1],"split_indices":[3,6,7,16,14,11,27,7,13,0,0,0,12,13,28,11,0,0,13,0,0,21,28,25,23,0,0,16,14,0,5,7,5,22,2,0,0,0,0,0,0,0,0,0,0,0,0,0,0,0,0],"split_type":[0,0,0,0,0,0,0,0,0,0,0,0,0,0,0,0,0,0,0,0,0,0,0,0,0,0,0,0,0,0,0,0,0,0,0,0,0,0,0,0,0,0,0,0,0,0,0,0,0,0,0],"sum_hessian":[2.5956573E2,2.1020287E2,4.936287E1,2.072763E2,2.9265554E0,6.673678E0,4.268919E1,3.0820568E0,2.0419426E2,1.5836132E0,1.3429422E0,1.7140831E0,4.959595E0,2.9280138E1,1.3409052E1,2.04649E0,1.0355668E0,3.6711698E0,2.0052309E2,1.8222167E0,3.1373782E0,9.378337E0,1.99018E1,1.0828238E1,2.580814E0,1.045686E0,1.0008041E0,5.004362E1,1.5047946E2,1.9777744E0,7.400563E0,5.8079863E0,1.4093814E1,7.811638E0,3.0166001E0,1.0140891E0,1.5667248E0,3.0491428E1,1.9552193E1,1.4934747E2,1.1319818E0,4.4834967E0,2.917066E0,1.5547218E0,4.2532644E0,1.3088214E1,1.0056001E0,6.688561E0,1.1230768E0,1.893425E0,1.123175E0],"tree_param":{"num_deleted":"0","num_feature":"30","num_nodes":"51","size_leaf_vector":"1"}},{"base_weights":[-6.6482395E-1,-8.5938907E-1,6.570087E-2,-8.833661E-1,4.9367845E-1,-2.67455E-1,1.7268503E0,1.8728976E-1,-9.047557E-1,1.4567132E-1,-6.1242886E-2,8.111238E-1,-8.804886E-1,3.0791407E0,-1.4874628E-1,1.2543193E-1,-6.841201E-2,-8.705525E-1,-1.5716461E0,2.4410353E0,-1.9980235E-1,-1.5088925E0,-5.5456955E-2,4.497024E-1,6.052299E-1,9.974816E-2,-7.314271E-2,1.6014762E-2,-9.189246E-1,-1.8990101E0,-3.3773344E-2,4.5099723E-1,4.0067925E0,1.0103973E0,-6.5883976E-1,-1.9262844E0,8.838068E-2,9.6478444E-1,-8.4625053E-1,9.2804916E-2,-8.341687E-4,1.2964419E-1,-8.800045E-2,-7.053259E-2,-9.711504E-2,-2.2286868E-1,-6.1859485E-2,1.4590143E-1,-8.320408E-2,1.52971E-2,5.717919E-1,2.3592304E-1,-5.8414917E-2,2.7417634E-2,-8.6676806E-2,-2.2701204E-1,-7.898211E-2,9.6471034E-2,-9.525096E-2,1.8253806E-1,-2.9886952E-2,-3.6003874E-3,-1.00334704E-1],"categories":[],"categories_nodes":[],"categories_segments":[],"categories_sizes":[],"default_left":[0,0,0,0,0,0,0,0,0,0,0,0,0,0,0,0,0,0,0,0,0,0,0,0,0,0,0,0,0,0,0,0,0,0,0,0,0,0,0,0,0,0,0,0,0,0,0,0,0,0,0,0,0,0,0,0,0,0,0,0,0,0,0],"id":7,"left_children":[1,3,5,7,9,11,13,15,17,-1,-1,19,21,23,25,-1,-1,27,29,31,33,35,37,-1,39,-1,-1,41,43,45,-1,47,49,51,53,55,57,59,61,-1,-1,-1,-1,-1,-1,-1,-1,-1,-1,-1,-1,-1,-1,-1,-1,-1,-1,-1,-1,-1,-1,-1,-1],"loss_changes":[3.4886055E1,6.7163086E0,2.9498343E1,4.5336E0,5.1658926E0,3.0182945E1,2.3028862E1,5.0990906E0,2.8973694E0,0E0,0E0,2.7958288E1,1.4897751E1,1.55776825E1,3.8566499E0,0E0,0E0,7.739395E0,2.5422783E0,1.8314701E1,6.8954406E0,1.1080383E1,1.1733858E1,0E0,6.130855E-1,0E0,0E0,1.2960469E1,1.2206116E0,1.1594028E0,0E0,6.349013E0,2.2121914E1,8.859753E0,1.9323514E0,3.2939491E0,4.8836207E0,7.479363E0,1.0020008E0,0E0,0E0,0E0,0E0,0E0,0E0,0E0,0E0,0E0,0E0,0E0,0E0,0E0,0E0,0E0,0E0,0E0,0E0,0E0,0E0,0E0,0E0,0E0,0E0],"parents":[2147483647,0,0,1,1,2,2,3,3,4,4,5,5,6,6,7,7,8,8,11,11,12,12,13,13,14,14,17,17,18,18,19,19,20,20,21,21,22,22,24,24,27,27,28,28,29,29,31,31,32,32,33,33,34,34,35,35,36,36,37,37,38,38],"right_children":[2,4,6,8,10,12,14,16,18,-1,-1,20,22,24,26,-1,-1,28,30,32,34,36,38,-1,40,-1,-1,42,44,46,-1,48,50,52,54,56,58,60,62,-1,-1,-1,-1,-1,-1,-1,-1,-1,-1,-1,-1,-1,-1,-1,-1,-1,-1,-1,-1,-1,-1,-1,-1],"split_conditions":[1.6164529E0,2.4949062E0,3.3184442E-1,-9.7647464E-1,8.6997825E-1,-5.9935667E-2,-7.704264E-1,-6.986931E-2,1.9808875E0,1.4567132E-1,-6.1242886E-2,-7.2347975E-1,-2.7580252E-1,1.6012375E-1,-5.134363E-2,1.2543193E-1,-6.841201E-2,-1.6085801E0,-2.4543527E-1,2.8433824E-1,-2.5045195E-1,1.0707829E0,-1.3639696E0,4.497024E-1,-6.29413E-2,9.974816E-2,-7.314271E-2,-1.1797306E-1,-4.6711722E-1,-3.62882E0,-3.3773344E-2,-1.6906065E0,-2.715354E-1,3.2149408E-2,-1.7099967E0,-2.400868E0,-2.6738498E0,4.625937E-1,-1.2942926E0,9.2804916E-2,-8.341687E-4,1.2964419E-1,-8.800045E-2,-7.053259E-2,-9.711504E-2,-2.2286868E-1,-6.1859485E-2,1.4590143E-1,-8.320408E-2,1.52971E-2,5.717919E-1,2.3592304E-1,-5.8414917E-2,2.7417634E-2,-8.6676806E-2,-2.2701204E-1,-7.898211E-2,9.6471034E-2,-9.525096E-2,1.8253806E-1,-2.9886952E-2,-3.6003874E-3,-1.00334704E-1],"split_indices":[3,6,22,19,5,19,11,11,16,0,0,13,21,12,9,0,0,13,8,4,28,28,8,0,27,0,0,25,13,13,0,17,23,25,18,8,11,14,14,0,0,0,0,0,0,0,0,0,0,0,0,0,0,0,0,0,0,0,0,0,0,0,0],"split_type":[0,0,0,0,0,0,0,0,0,0,0,0,0,0,0,0,0,0,0,0,0,0,0,0,0,0,0,0,0,0,0,0,0,0,0,0,0,0,0,0,0,0,0,0,0,0,0,0,0,0,0,0,0,0,0,0,0,0,0,0,0,0,0],"sum_hessian":[2.4404648E2,1.9257927E2,5.1467205E1,1.8956718E2,3.0120914E0,4.356826E1,7.8989453E0,3.5610828E0,1.860061E2,1.4407375E0,1.5713539E0,1.5671863E1,2.7896399E1,4.216904E0,3.682041E0,1.4033214E0,2.1577613E0,1.7912462E2,6.8814893E0,5.4577327E0,1.0214129E1,1.5364664E1,1.2531734E1,2.160734E0,2.0561705E0,1.0010093E0,2.6810315E0,9.302211E0,1.698224E2,5.012603E0,1.8688864E0,2.9704297E0,2.4873033E0,2.4785619E0,7.7355676E0,1.2018154E1,3.34651E0,5.3759446E0,7.1557894E0,1.011469E0,1.0447016E0,3.645639E0,5.656572E0,3.6214336E1,1.3360806E2,3.3972847E0,1.6153178E0,1.5866916E0,1.383738E0,1.0997742E0,1.387529E0,1.0829384E0,1.3956236E0,1.3516833E0,6.3838844E0,8.460812E0,3.5573428E0,1.85661E0,1.4898999E0,2.9335563E0,2.4423885E0,1.3617193E0,5.79407E0],"tree_param":{"num_deleted":"0","num_feature":"30","num_nodes":"63","size_leaf_vector":"1"}},{"base_weights":[-6.3534886E-1,-8.4178936E-1,7.2172664E-2,-8.6733097E-1,4.4602942E-1,2.456193E0,-1.1988116E-1,2.879753E-1,-8.882041E-1,-6.107546E-2,1.3212904E-1,3.7686092E-1,-5.1886506E-2,6.2530077E-1,-6.3193053E-1,1.5101974E-1,-1.5428637E-1,-9.0906966E-1,-4.3519665E-2,-3.0946758E-1,1.9039258E0,-1.3487622E0,2.449065E-1,-1.7038667E-1,-8.7956977E-1,1.3214014E-1,-7.550364E-2,-6.8623054E-1,5.4737216E-1,2.5315788E0,-2.9734984E-2,-1.6933885E0,3.078483E-2,1.3489524E0,-7.5812554E-1,-2.3250153E-2,-9.171948E-2,-8.666532E-2,-5.0768885E-3,-4.328644E-2,1.993771E-1,3.516256E-1,4.9782153E-2,-1.846178E-1,-2.698353E-2,9.395623E-2,-9.497313E-2,1.9652914E-1,-3.7522536E-2,-3.8472793E-4,-8.629797E-2],"categories":[],"categories_nodes":[],"categories_segments":[],"categories_sizes":[],"default_left":[0,0,0,0,0,0,0,0,0,0,0,0,0,0,0,0,0,0,0,0,0,0,0,0,0,0,0,0,0,0,0,0,0,0,0,0,0,0,0,0,0,0,0,0,0,0,0,0,0,0,0],"id":8,"left_children":[1,3,5,7,9,11,13,15,17,-1,-1,-1,-1,19,21,-1,-1,23,25,27,29,31,33,-1,35,-1,-1,37,39,41,-1,43,45,47,49,-1,-1,-1,-1,-1,-1,-1,-1,-1,-1,-1,-1,-1,-1,-1,-1],"loss_changes":[3.384056E1,6.2783966E0,2.463402E1,4.499237E0,4.6397324E0,1.7611418E1,1.953075E1,1.1007776E1,3.0111237E0,0E0,0E0,0E0,0E0,2.5602442E1,1.932613E1,0E0,0E0,2.460678E0,6.070032E0,4.556102E0,1.3157246E1,8.030659E0,1.7013575E1,0E0,3.8011856E0,0E0,0E0,1.0381217E0,7.2592454E0,1.2450417E1,0E0,2.4262428E0,4.756436E0,8.424553E0,6.4571714E-1,0E0,0E0,0E0,0E0,0E0,0E0,0E0,0E0,0E0,0E0,0E0,0E0,0E0,0E0,0E0,0E0],"parents":[2147483647,0,0,1,1,2,2,3,3,4,4,5,5,6,6,7,7,8,8,13,13,14,14,17,17,18,18,19,19,20,20,21,21,22,22,24,24,27,27,28,28,29,29,31,31,32,32,33,33,34,34],"right_children":[2,4,6,8,10,12,14,16,18,-1,-1,-1,-1,20,22,-1,-1,24,26,28,30,32,34,-1,36,-1,-1,38,40,42,-1,44,46,48,50,-1,-1,-1,-1,-1,-1,-1,-1,-1,-1,-1,-1,-1,-1,-1,-1],"split_conditions":[1.6164529E0,2.4949062E0,-2.4988065E0,-1.5992689E0,-1.16664525E-2,-9.359836E-1,-2.9877895E-2,2.0199497E-1,8.320207E-1,-6.107546E-2,1.3212904E-1,3.7686092E-1,-5.1886506E-2,4.654332E-1,-2.7580252E-1,1.5101974E-1,-1.5428637E-1,-3.62882E0,-3.2773063E-1,9.3269867E-1,1.0901203E0,1.0707829E0,-1.6880325E0,-1.7038667E-1,-1.6085801E0,1.3214014E-1,-7.550364E-2,5.0868547E-1,-7.965253E-2,2.4681424E-1,-2.9734984E-2,2.3189098E-1,-2.6738498E0,3.7635413E-1,-4.074372E-1,-2.3250153E-2,-9.171948E-2,-8.666532E-2,-5.0768885E-3,-4.328644E-2,1.993771E-1,3.516256E-1,4.9782153E-2,-1.846178E-1,-2.698353E-2,9.395623E-2,-9.497313E-2,1.9652914E-1,-3.7522536E-2,-3.8472793E-4,-8.629797E-2],"split_indices":[3,6,7,16,14,6,19,27,20,0,0,0,0,10,21,0,0,13,24,1,12,28,13,0,13,0,0,8,0,7,0,25,11,27,17,0,0,0,0,0,0,0,0,0,0,0,0,0,0,0,0],"split_type":[0,0,0,0,0,0,0,0,0,0,0,0,0,0,0,0,0,0,0,0,0,0,0,0,0,0,0,0,0,0,0,0,0,0,0,0,0,0,0,0,0,0,0,0,0,0,0,0,0,0,0],"sum_hessian":[2.3027176E2,1.7811238E2,5.215938E1,1.7496869E2,3.1436827E0,3.009723E0,4.914966E1,2.8779912E0,1.720907E2,1.5610656E0,1.5826172E0,1.9033467E0,1.1063762E0,1.9927757E1,2.9221899E1,1.8308775E0,1.0471138E0,1.6786777E2,4.2229333E0,1.1949656E1,7.9781027E0,1.5781774E1,1.3440125E1,3.9763799E0,1.6389139E2,1.1533227E0,3.0696106E0,8.438332E0,3.5113232E0,6.0912457E0,1.8868573E0,1.2445302E1,3.3364716E0,6.233731E0,7.206395E0,9.400618E0,1.5449077E2,6.288937E0,2.1493948E0,2.510599E0,1.0007243E0,3.6130047E0,2.478241E0,1.0970918E1,1.4743845E0,1.7532574E0,1.5832143E0,4.4891567E0,1.7445741E0,1.0060399E0,6.200355E0],"tree_param":{"num_deleted":"0","num_feature":"30","num_nodes":"51","size_leaf_vector":"1"}},{"base_weights":[-6.0826117E-1,-8.239709E-1,6.948624E-2,-8.511543E-1,4.0183747E-1,-2.1809053E-1,1.4259803E0,2.2874779E-1,-8.756178E-1,1.2418441E-1,-6.1662532E-2,6.503074E-1,-7.581489E-1,2.982178E0,1.3861363E-1,1.1737601E-1,-6.5677844E-2,3.2239E-2,-8.894282E-1,1.747818E0,-1.8620478E-1,1.4324956E-1,-9.3177515E-1,3.7931183E-1,3.674841E-2,-6.981376E-2,9.3594027E-1,-6.87267E-1,-9.650466E-1,-7.692449E-2,2.313291E0,7.1082014E-1,-7.3046094E-1,-1.1149623E0,8.272E-1,1.8741913E-1,-5.273075E-2,-5.3058207E-2,-1.3944498E-1,-9.912431E-2,-4.7350597E-2,-5.1924467E-2,2.9476827E-1,1.8283594E-1,-3.7616722E-2,-8.447208E-2,-3.4334385E-4,-1.3644476E-1,-2.0559747E-2,1.8308994E-1,-5.2508738E-2],"categories":[],"categories_nodes":[],"categories_segments":[],"categories_sizes":[],"default_left":[0,0,0,0,0,0,0,0,0,0,0,0,0,0,0,0,0,0,0,0,0,0,0,0,0,0,0,0,0,0,0,0,0,0,0,0,0,0,0,0,0,0,0,0,0,0,0,0,0,0,0],"id":9,"left_children":[1,3,5,7,9,11,13,15,17,-1,-1,19,21,23,25,-1,-1,-1,27,29,31,-1,33,-1,-1,-1,35,37,39,-1,41,43,45,47,49,-1,-1,-1,-1,-1,-1,-1,-1,-1,-1,-1,-1,-1,-1,-1,-1],"loss_changes":[3.1971573E1,5.8624573E0,2.1230404E1,4.4905243E0,4.421794E0,2.165059E1,1.8644602E1,4.444794E0,2.9175262E0,0E0,0E0,1.670088E1,1.208997E1,7.634575E0,4.8264146E0,0E0,0E0,0E0,1.7438736E0,1.2897182E1,5.9020224E0,0E0,9.55983E0,0E0,0E0,0E0,5.9720263E0,4.394703E0,9.7439575E-1,0E0,1.3440121E1,6.3609924E0,6.0810256E-1,5.3240776E0,5.172342E0,0E0,0E0,0E0,0E0,0E0,0E0,0E0,0E0,0E0,0E0,0E0,0E0,0E0,0E0,0E0,0E0],"parents":[2147483647,0,0,1,1,2,2,3,3,4,4,5,5,6,6,7,7,8,8,11,11,12,12,13,13,14,14,18,18,19,19,20,20,22,22,26,26,27,27,28,28,30,30,31,31,32,32,33,33,34,34],"right_children":[2,4,6,8,10,12,14,16,18,-1,-1,20,22,24,26,-1,-1,-1,28,30,32,-1,34,-1,-1,-1,36,38,40,-1,42,44,46,48,50,-1,-1,-1,-1,-1,-1,-1,-1,-1,-1,-1,-1,-1,-1,-1,-1],"split_conditions":[1.6164529E0,2.4949062E0,3.3184442E-1,-9.7647464E-1,-1.3656464E-1,-5.9935667E-2,-1.5992689E0,-6.986931E-2,-3.52388E0,1.2418441E-1,-6.1662532E-2,-7.2347975E-1,-2.9523015E-1,4.9350038E-1,3.2427934E-1,1.1737601E-1,-6.5677844E-2,3.2239E-2,-4.6711722E-1,-5.351616E-1,-1.1850071E0,1.4324956E-1,8.505073E-1,3.7931183E-1,3.674841E-2,-6.981376E-2,-6.736428E-2,1.8319528E0,6.244856E-1,-7.692449E-2,-4.1345748E-1,-1.991378E-1,1.6016858E0,1.0082047E0,4.3719493E-2,1.8741913E-1,-5.273075E-2,-5.3058207E-2,-1.3944498E-1,-9.912431E-2,-4.7350597E-2,-5.1924467E-2,2.9476827E-1,1.8283594E-1,-3.7616722E-2,-8.447208E-2,-3.4334385E-4,-1.3644476E-1,-2.0559747E-2,1.8308994E-1,-5.2508738E-2],"split_indices":[3,6,22,19,25,19,16,11,11,0,0,13,28,26,16,0,0,0,13,24,14,0,21,0,0,0,7,16,19,0,10,28,2,28,2,0,0,0,0,0,0,0,0,0,0,0,0,0,0,0,0],"split_type":[0,0,0,0,0,0,0,0,0,0,0,0,0,0,0,0,0,0,0,0,0,0,0,0,0,0,0,0,0,0,0,0,0,0,0,0,0,0,0,0,0,0,0,0,0,0,0,0,0,0,0],"sum_hessian":[2.1729715E2,1.6467087E2,5.262629E1,1.6139737E2,3.273495E0,4.4113457E1,8.512829E0,3.3902347E0,1.5800714E2,1.6737168E0,1.599778E0,1.6836584E1,2.7276875E1,3.2579958E0,5.254833E0,1.4825735E0,1.9076612E0,1.5460739E0,1.5646106E2,6.811038E0,1.0025546E1,1.470691E0,2.5806183E1,2.1427386E0,1.1152574E0,2.6247265E0,2.6301067E0,4.5338875E1,1.11122185E2,1.1833397E0,5.6276984E0,3.6702774E0,6.3552685E0,2.3703707E1,2.1024766E0,1.4314204E0,1.1986864E0,3.8548306E1,6.790571E0,1.0453444E2,6.5877457E0,1.0629905E0,4.5647078E0,1.4734107E0,2.1968668E0,5.352228E0,1.0030402E0,1.8207909E1,5.4957986E0,1.0036306E0,1.098846E0],"tree_param":{"num_deleted":"0","num_feature":"30","num_nodes":"51","size_leaf_vector":"1"}},{"base_weights":[-5.795185E-1,-8.060822E-1,7.1847804E-2,-1.11477524E-1,-8.60166E-1,-4.881883E-1,6.336531E-1,9.883297E-1,-6.589599E-1,-5.867601E-1,-9.7058576E-1,2.1612428E-1,-1.0545019E0,-2.5391486E-1,1.3720438E0,-5.906353E-2,2.1305442E-1,4.8893187E-2,-8.7220155E-2,-3.4794614E-1,-1.329564E0,-9.8036706E-1,-9.051523E-3,1.4445231E0,-5.723892E-1,-1.3047562E0,3.1837937E-1,-7.807383E-1,7.017722E-1,4.1523885E-2,2.190733E0,1.3653015E0,-5.110891E-1,-1.7271547E0,-7.0498484E-1,-9.902625E-2,-3.9870676E-1,2.5140893E0,-3.4732383E-2,2.2123866E-1,-8.899846E-2,-1.6653777E0,1.3771759E-1,-3.05565E-2,8.1522755E-2,3.0254663E-4,-8.798886E-2,2.3504458E-1,-4.9186558E-1,-6.042118E-1,1.89221E-1,3.0443802E0,7.0501976E-2,-4.774354E-2,2.4993633E-1,7.729651E-3,-7.4089155E-2,-1.9395892E-1,-5.5769272E-2,-1.6353643E-2,-7.8623906E-2,-5.6352852E-5,-5.6991953E-2,3.6242777E-1,3.4741096E-2,1.0151988E-1,-5.663047E-2,-2.0530342E-1,-3.7487794E-2,1.0065355E-1,-8.587942E-2,-6.614338E-2,-1.9195756E-4,-1.2453263E-1,3.057692E-2,4.3415123E-1,8.5807964E-2,9.706232E-2,-6.328225E-2],"categories":[],"categories_nodes":[],"categories_segments":[],"categories_sizes":[],"default_left":[0,0,0,0,0,0,0,0,0,0,0,0,0,0,0,0,0,0,0,0,0,0,0,0,0,0,0,0,0,0,0,0,0,0,0,0,0,0,0,0,0,0,0,0,0,0,0,0,0,0,0,0,0,0,0,0,0,0,0,0,0,0,0,0,0,0,0,0,0,0,0,0,0,0,0,0,0,0,0],"id":10,"left_children":[1,3,5,7,9,11,13,15,17,19,21,23,25,27,29,-1,-1,-1,-1,31,33,35,-1,37,39,41,43,45,47,49,51,53,55,57,59,-1,61,63,-1,65,-1,67,69,-1,-1,-1,-1,-1,71,73,-1,75,77,-1,-1,-1,-1,-1,-1,-1,-1,-1,-1,-1,-1,-1,-1,-1,-1,-1,-1,-1,-1,-1,-1,-1,-1,-1,-1],"loss_changes":[3.055455E1,5.6669693E0,1.7377323E1,8.0155115E0,3.7225952E0,1.1288896E1,1.8381714E1,9.310801E0,2.5720677E0,7.241371E0,7.698822E-1,1.3602482E1,5.755062E0,7.2641296E0,1.644054E1,0E0,0E0,0E0,0E0,1.026185E1,1.3181095E0,1.7237091E-1,0E0,1.1299561E1,2.402202E0,7.1695004E0,1.2411422E0,7.0770216E-1,1.1521133E1,9.270197E0,1.675539E1,7.9797525E0,4.3800726E0,2.9704475E-1,1.20500326E-1,0E0,2.2616005E-1,7.227606E0,0E0,2.6392918E0,0E0,4.6081066E0,3.9742875E0,0E0,0E0,0E0,0E0,0E0,3.2124853E-1,3.7641537E0,0E0,1.5164631E1,2.9661736E0,0E0,0E0,0E0,0E0,0E0,0E0,0E0,0E0,0E0,0E0,0E0,0E0,0E0,0E0,0E0,0E0,0E0,0E0,0E0,0E0,0E0,0E0,0E0,0E0,0E0,0E0],"parents":[2147483647,0,0,1,1,2,2,3,3,4,4,5,5,6,6,7,7,8,8,9,9,10,10,11,11,12,12,13,13,14,14,19,19,20,20,21,21,23,23,24,24,25,25,26,26,27,27,28,28,29,29,30,30,31,31,32,32,33,33,34,34,36,36,37,37,39,39,41,41,42,42,48,48,49,49,51,51,52,52],"right_children":[2,4,6,8,10,12,14,16,18,20,22,24,26,28,30,-1,-1,-1,-1,32,34,36,-1,38,40,42,44,46,48,50,52,54,56,58,60,-1,62,64,-1,66,-1,68,70,-1,-1,-1,-1,-1,72,74,-1,76,78,-1,-1,-1,-1,-1,-1,-1,-1,-1,-1,-1,-1,-1,-1,-1,-1,-1,-1,-1,-1,-1,-1,-1,-1,-1,-1],"split_conditions":[1.6164529E0,-7.117313E-1,-5.7285666E-2,-5.3065157E-1,-4.6711722E-1,1.1512497E-1,4.8949018E-1,-4.743918E-1,-1.1677095E0,1.3853452E-1,1.8689047E0,-4.082582E-1,1.6890572E0,3.543897E-2,-9.085286E-1,-5.906353E-2,2.1305442E-1,4.8893187E-2,-8.7220155E-2,-1.2386044E0,-6.8065095E-1,7.666209E-1,-9.051523E-3,4.0406713E-1,-1.1242292E0,2.2417957E-1,-2.2281666E-1,-2.4583282E0,1.0558556E-1,4.2297715E-1,2.1756E-1,2.1083866E-1,-8.639435E-1,-3.62882E0,-5.7327E-1,-9.902625E-2,-2.0604752E-1,1.7919908E-1,-3.4732383E-2,-8.287564E-2,-8.899846E-2,-1.5406704E0,-4.9813762E-1,-3.05565E-2,8.1522755E-2,3.0254663E-4,-8.798886E-2,2.3504458E-1,2.1615218E-1,1.02075525E-1,1.89221E-1,-1.4855032E-1,-5.864331E-1,-4.774354E-2,2.4993633E-1,7.729651E-3,-7.4089155E-2,-1.9395892E-1,-5.5769272E-2,-1.6353643E-2,-7.8623906E-2,-5.6352852E-5,-5.6991953E-2,3.6242777E-1,3.4741096E-2,1.0151988E-1,-5.663047E-2,-2.0530342E-1,-3.7487794E-2,1.0065355E-1,-8.587942E-2,-6.614338E-2,-1.9195756E-4,-1.2453263E-1,3.057692E-2,4.3415123E-1,8.5807964E-2,9.706232E-2,-6.328225E-2],"split_indices":[3,7,22,11,13,27,10,3,12,27,14,5,20,27,5,0,0,0,0,15,8,22,0,6,8,25,25,11,5,29,2,3,9,13,11,0,25,23,0,13,0,5,5,0,0,0,0,0,19,12,0,15,29,0,0,0,0,0,0,0,0,0,0,0,0,0,0,0,0,0,0,0,0,0,0,0,0,0,0],"split_type":[0,0,0,0,0,0,0,0,0,0,0,0,0,0,0,0,0,0,0,0,0,0,0,0,0,0,0,0,0,0,0,0,0,0,0,0,0,0,0,0,0,0,0,0,0,0,0,0,0,0,0,0,0,0,0,0,0,0,0,0,0,0,0,0,0,0,0,0,0,0,0,0,0,0,0,0,0,0,0],"sum_hessian":[2.0565044E2,1.5240286E2,5.324757E1,1.1230415E1,1.4117245E2,2.6731394E1,2.6516176E1,3.4648478E0,7.7655683E0,4.2429188E1,9.874326E1,1.2189692E1,1.4541702E1,1.2339659E1,1.41765175E1,1.6570675E0,1.8077801E0,1.0140458E0,6.751522E0,3.3217934E1,9.211254E0,9.754516E1,1.1981008E0,4.4403152E0,7.7493763E0,1.234164E1,2.2000613E0,8.072659E0,4.267E0,5.800447E0,8.376071E0,2.2474604E0,3.0970474E1,4.549715E0,4.661539E0,9.5222725E1,2.3224363E0,2.5281644E0,1.9121507E0,2.3015387E0,5.447838E0,9.749673E0,2.5919683E0,1.1459568E0,1.0541047E0,1.0154233E0,7.0572352E0,1.3849448E0,2.8820553E0,4.7993817E0,1.0010655E0,5.660977E0,2.7150936E0,1.0767894E0,1.1706711E0,8.884994E0,2.208548E1,3.293005E0,1.2567098E0,1.0013773E0,3.660162E0,1.0000896E0,1.3223468E0,1.2268182E0,1.3013462E0,1.0021514E0,1.2993873E0,7.043096E0,2.7065763E0,1.379329E0,1.2126393E0,1.8810264E0,1.0010289E0,2.5994534E0,2.199928E0,2.9342854E0,2.7266915E0,1.0242274E0,1.6908661E0],"tree_param":{"num_deleted":"0","num_feature":"30","num_nodes":"79","size_leaf_vector":"1"}},{"base_weights":[-5.519943E-1,-7.874172E-1,7.706206E-2,-9.813474E-2,-8.438514E-1,7.265026E-1,-3.3357605E-1,-4.1083673E-1,1.6489868E-1,-5.5543584E-1,-9.675239E-1,4.174182E-1,3.0929923E-1,-5.8326226E-1,1.6432692E0,6.044494E-1,-8.744865E-2,-1.4231768E-1,-9.5230156E-1,-9.7825617E-1,-8.602578E-3,1.2485015E0,-1.0220842E-1,-7.2394997E-1,8.946572E-1,2.260456E-1,-3.7398667E-3,-6.1988063E-2,1.6973977E-1,-4.582911E-1,1.1157833E0,-1.049536E0,3.887234E-2,-9.891321E-2,-3.8512328E-1,2.4957716E0,-2.1189883E-1,7.962097E-1,-5.407067E-1,-9.9617803E-1,2.4646614E-1,1.8378685E-1,-5.1004436E-2,-8.953618E-2,2.299946E-3,-4.430253E-2,2.4590722E-1,1.6838977E-2,-1.171717E-1,-5.3539552E-5,-5.5587847E-2,3.4656772E-1,3.6472138E-2,-6.467333E-2,4.9616773E-2,2.3779988E-1,-3.2061648E-2,4.282801E-2,-6.955437E-2,-4.6329075E-4,-1.12343304E-1,9.766757E-2,-9.646278E-2],"categories":[],"categories_nodes":[],"categories_segments":[],"categories_sizes":[],"default_left":[0,0,0,0,0,0,0,0,0,0,0,0,0,0,0,0,0,0,0,0,0,0,0,0,0,0,0,0,0,0,0,0,0,0,0,0,0,0,0,0,0,0,0,0,0,0,0,0,0,0,0,0,0,0,0,0,0,0,0,0,0,0,0],"id":11,"left_children":[1,3,5,7,9,11,13,15,-1,17,19,-1,21,23,25,27,-1,29,31,33,-1,35,37,39,41,-1,-1,-1,-1,43,45,47,-1,-1,49,51,53,55,57,59,61,-1,-1,-1,-1,-1,-1,-1,-1,-1,-1,-1,-1,-1,-1,-1,-1,-1,-1,-1,-1,-1,-1],"loss_changes":[2.9026848E1,5.4570694E0,1.4690403E1,7.183887E0,4.153343E0,2.9347626E1,1.76792E1,5.660536E0,0E0,6.720086E0,7.738342E-1,0E0,7.8888674E0,7.0548754E0,4.296774E0,6.416851E0,0E0,9.1231785E0,3.1659565E0,1.9644928E-1,0E0,1.1810743E1,6.295621E0,7.824482E0,5.078685E0,0E0,0E0,0E0,0E0,3.8120275E0,1.0804846E1,3.172184E0,0E0,0E0,2.1308187E-1,5.802511E0,1.4831249E0,1.0103261E1,1.8882954E0,2.8467636E0,7.209224E0,0E0,0E0,0E0,0E0,0E0,0E0,0E0,0E0,0E0,0E0,0E0,0E0,0E0,0E0,0E0,0E0,0E0,0E0,0E0,0E0,0E0,0E0],"parents":[2147483647,0,0,1,1,2,2,3,3,4,4,5,5,6,6,7,7,9,9,10,10,12,12,13,13,14,14,15,15,17,17,18,18,19,19,21,21,22,22,23,23,24,24,29,29,30,30,31,31,34,34,35,35,36,36,37,37,38,38,39,39,40,40],"right_children":[2,4,6,8,10,12,14,16,-1,18,20,-1,22,24,26,28,-1,30,32,34,-1,36,38,40,42,-1,-1,-1,-1,44,46,48,-1,-1,50,52,54,56,58,60,62,-1,-1,-1,-1,-1,-1,-1,-1,-1,-1,-1,-1,-1,-1,-1,-1,-1,-1,-1,-1,-1,-1],"split_conditions":[1.6164529E0,-7.117313E-1,-8.338278E-2,1.3025126E0,-4.6711722E-1,-3.62882E0,1.0068712E0,-1.1233912E0,1.6489868E-1,2.7735122E-2,1.8689047E0,4.174182E-1,-1.4696203E0,6.824503E0,-1.7735744E0,5.458545E-2,-8.744865E-2,7.5787556E-1,-5.23115E-1,7.666209E-1,-8.602578E-3,-1.991378E-1,-2.7356699E0,2.5462216E-1,-4.8946536E-1,2.260456E-1,-3.7398667E-3,-6.1988063E-2,1.6973977E-1,-2.504232E-2,1.7093368E-2,-6.001686E-1,3.887234E-2,-9.891321E-2,-2.0604752E-1,5.311448E-2,1.7889428E-1,-1.9751388E-1,-3.846642E-1,-3.301718E-1,2.8313112E-1,1.8378685E-1,-5.1004436E-2,-8.953618E-2,2.299946E-3,-4.430253E-2,2.4590722E-1,1.6838977E-2,-1.171717E-1,-5.3539552E-5,-5.5587847E-2,3.4656772E-1,3.6472138E-2,-6.467333E-2,4.9616773E-2,2.3779988E-1,-3.2061648E-2,4.282801E-2,-6.955437E-2,-4.6329075E-4,-1.12343304E-1,9.766757E-2,-9.646278E-2],"split_indices":[3,7,19,16,13,13,21,2,0,26,14,0,18,28,9,18,0,3,13,22,0,28,0,25,11,0,0,0,0,27,20,24,0,0,25,22,7,12,20,25,5,0,0,0,0,0,0,0,0,0,0,0,0,0,0,0,0,0,0,0,0,0,0],"split_type":[0,0,0,0,0,0,0,0,0,0,0,0,0,0,0,0,0,0,0,0,0,0,0,0,0,0,0,0,0,0,0,0,0,0,0,0,0,0,0,0,0,0,0,0,0,0,0,0,0,0,0,0,0,0,0,0,0,0,0,0,0,0,0],"sum_hessian":[1.9459286E2,1.4141638E2,5.317649E1,1.0909363E1,1.3050702E2,2.0300785E1,3.28757E1,9.901949E0,1.0074139E0,4.081466E1,8.969235E1,1.2193325E0,1.9081453E1,2.9814877E1,3.0608265E0,3.00908E0,6.8928685E0,2.0663527E1,2.0151134E1,8.8505035E1,1.1873207E0,5.193691E0,1.3887762E1,2.768921E1,2.1256661E0,1.9863944E0,1.0744321E0,1.6233855E0,1.3856945E0,1.7023727E1,3.6397996E0,1.8991472E1,1.1596628E0,8.625578E1,2.2492502E0,2.4188678E0,2.774823E0,4.2875147E0,9.600247E0,2.160256E1,6.0866504E0,1.0872462E0,1.0384198E0,8.470837E0,8.552891E0,1.994959E0,1.6448406E0,1.6970196E0,1.7294453E1,1.0000335E0,1.2492167E0,1.2319108E0,1.1869569E0,1.7727629E0,1.00206E0,1.3070539E0,2.980461E0,1.0793775E0,8.52087E0,2.575011E0,1.902755E1,3.9179468E0,2.1687038E0],"tree_param":{"num_deleted":"0","num_feature":"30","num_nodes":"63","size_leaf_vector":"1"}},{"base_weights":[-5.2360314E-1,-7.6815486E-1,9.156536E-2,-8.009824E-1,4.0017134E-1,-5.92109E-1,4.5496312E-1,-4.9659362E-1,-9.4291115E-1,-6.1829418E-2,1.2413273E-1,1.4854735E-1,-7.9155564E-1,-5.193545E-1,1.2679298E0,-2.777322E-1,-1.2034333E0,-9.7594327E-1,-3.810555E-1,-1.121854E0,5.2070135E-1,5.988016E-1,-7.212055E-1,2.0585341E0,-7.838384E-2,2.4522667E-1,-4.3970254E-1,-1.3555251E0,-3.824041E-2,-5.000514E-4,-9.8809086E-2,3.4479294E-2,-7.774802E-2,-1.4881516E0,5.416728E-2,-5.5326857E-2,1.0283623E-1,-5.2852638E-2,1.4755599E-1,1.0727823E-1,-9.07428E-1,2.7131894E0,-1.2766162E-1,9.9610016E-2,-5.357493E-1,-5.779088E-3,-7.4138366E-2,-1.652791E-1,-6.8521395E-2,5.061884E-3,-1.695939E-1,9.910808E-2,-6.164199E-2,-2.7702603E-4,-9.887268E-2,1.2445279E-1,3.696148E-1,9.5830694E-2,-1.2778796E-1,-8.1769966E-2,4.8703752E-2],"categories":[],"categories_nodes":[],"categories_segments":[],"categories_sizes":[],"default_left":[0,0,0,0,0,0,0,0,0,0,0,0,0,0,0,0,0,0,0,0,0,0,0,0,0,0,0,0,0,0,0,0,0,0,0,0,0,0,0,0,0,0,0,0,0,0,0,0,0,0,0,0,0,0,0,0,0,0,0,0,0],"id":12,"left_children":[1,3,5,7,9,11,13,15,17,-1,-1,-1,19,21,23,25,27,29,31,33,35,37,39,41,43,-1,45,47,-1,-1,-1,-1,-1,49,-1,-1,-1,-1,-1,51,53,55,57,-1,59,-1,-1,-1,-1,-1,-1,-1,-1,-1,-1,-1,-1,-1,-1,-1,-1],"loss_changes":[2.7819195E1,5.386589E0,1.3526804E1,5.096649E0,4.431429E0,9.029812E0,2.870415E1,6.3294573E0,1.2378922E0,0E0,0E0,0E0,8.362743E0,4.2269754E0,2.1015577E1,1.619674E1,7.158842E-1,9.5373535E-1,2.1259747E0,9.735777E0,2.908896E0,3.8613172E0,2.3648634E0,1.8065296E1,4.569307E0,0E0,3.7735415E0,4.5087147E-1,0E0,0E0,0E0,0E0,0E0,4.011219E0,0E0,0E0,0E0,0E0,0E0,2.9081037E0,8.87599E-1,9.21904E0,5.9812355E0,0E0,2.2468522E0,0E0,0E0,0E0,0E0,0E0,0E0,0E0,0E0,0E0,0E0,0E0,0E0,0E0,0E0,0E0,0E0],"parents":[2147483647,0,0,1,1,2,2,3,3,4,4,5,5,6,6,7,7,8,8,12,12,13,13,14,14,15,15,16,16,17,17,18,18,19,19,20,20,21,21,22,22,23,23,24,24,26,26,27,27,33,33,39,39,40,40,41,41,42,42,44,44],"right_children":[2,4,6,8,10,12,14,16,18,-1,-1,-1,20,22,24,26,28,30,32,34,36,38,40,42,44,-1,46,48,-1,-1,-1,-1,-1,50,-1,-1,-1,-1,-1,52,54,56,58,-1,60,-1,-1,-1,-1,-1,-1,-1,-1,-1,-1,-1,-1,-1,-1,-1,-1],"split_conditions":[1.6164529E0,2.4949062E0,-1.351933E0,-4.6711722E-1,-2.0741293E0,-4.7098538E-1,1.3943997E-1,1.5367353E-1,6.244856E-1,-6.1829418E-2,1.2413273E-1,1.4854735E-1,2.3988493E-1,-4.8279017E-1,-4.4654366E-1,-2.1113486E0,3.0077583E-1,-2.953692E-1,8.808768E-1,1.0707829E0,2.3479242E0,-7.140552E-4,-2.587957E-1,1.3579552E0,-2.5045195E-1,2.4522667E-1,-1.1797306E-1,-6.8065095E-1,-3.824041E-2,-5.000514E-4,-9.8809086E-2,3.4479294E-2,-7.774802E-2,1.6741431E0,5.416728E-2,-5.5326857E-2,1.0283623E-1,-5.2852638E-2,1.4755599E-1,2.6943085E-1,-1.6869403E0,-2.019825E0,-1.1492165E-1,9.9610016E-2,3.7404063E0,-5.779088E-3,-7.4138366E-2,-1.652791E-1,-6.8521395E-2,5.061884E-3,-1.695939E-1,9.910808E-2,-6.164199E-2,-2.7702603E-4,-9.887268E-2,1.2445279E-1,3.696148E-1,9.5830694E-2,-1.2778796E-1,-8.1769966E-2,4.8703752E-2],"split_indices":[3,6,5,13,0,25,10,27,19,0,0,0,25,5,13,11,25,28,19,28,1,21,28,4,28,0,25,8,0,0,0,0,0,1,0,0,0,0,0,5,4,9,19,0,3,0,0,0,0,0,0,0,0,0,0,0,0,0,0,0,0],"split_type":[0,0,0,0,0,0,0,0,0,0,0,0,0,0,0,0,0,0,0,0,0,0,0,0,0,0,0,0,0,0,0,0,0,0,0,0,0,0,0,0,0,0,0,0,0,0,0,0,0,0,0,0,0,0,0,0,0,0,0,0,0],"sum_hessian":[1.834507E2,1.310893E2,5.2361412E1,1.2781244E2,3.2768455E0,1.7954168E1,3.4407246E1,4.2074932E1,8.573751E1,1.6020463E0,1.6747991E0,1.0078357E0,1.6946333E1,1.5814807E1,1.859244E1,3.319085E1,8.884085E0,8.0280716E1,5.456792E0,1.3654545E1,3.2917871E0,2.1176274E0,1.3697179E1,1.1380424E1,7.212015E0,1.0669674E0,3.2123882E1,6.946307E0,1.9377776E0,1.0094317E0,7.9271286E1,1.9735295E0,3.4832623E0,1.12768755E1,2.3776696E0,1.027739E0,2.264048E0,1.1001918E0,1.0174356E0,2.591556E0,1.1105623E1,8.572375E0,2.8080482E0,1.801608E0,5.410407E0,1.4702672E1,1.742121E1,3.7968109E0,3.149496E0,1.4315933E0,9.845283E0,1.0003862E0,1.5911697E0,1.0009995E0,1.0104624E1,4.345607E0,4.2267685E0,1.5301849E0,1.2778634E0,4.398419E0,1.0119885E0],"tree_param":{"num_deleted":"0","num_feature":"30","num_nodes":"61","size_leaf_vector":"1"}},{"base_weights":[-4.9722338E-1,-7.4793816E-1,8.768857E-2,-4.4149813E-1,-9.0167964E-1,-2.8241742E-1,6.874027E-1,-2.2258598E-1,-1.1475453E0,-9.372921E-1,4.117569E-2,4.6937126E-1,-6.1883086E-1,1.6857165E0,-9.687477E-2,2.4466942E-1,-3.7724644E-1,-1.2932966E0,-3.7370812E-2,-9.7340846E-1,-3.6213896E-1,1.8530521E0,-3.841721E-1,1.06893994E-1,-7.643424E-1,6.622049E-1,3.6796796E-1,8.749975E-1,-6.0915226E-1,-7.2435033E-1,9.6832216E-2,-1.5682876E-1,-6.907124E-2,-4.750479E-4,-9.86764E-2,3.2307E-1,-7.648218E-2,2.7052953E0,-4.3626256E-2,-8.225106E-2,3.9934888E-1,-5.0149006E-1,-1.7711354E0,-3.5419598E-1,1.4876572E0,-3.2568675E-2,1.8199247E-1,-9.52006E-2,1.03165165E-1,3.8014185E-2,-8.838342E-2,7.628528E-2,-6.64693E-2,-5.0544985E-2,9.980746E-2,1.036368E-2,4.2413297E-1,1.3488816E-1,-5.900926E-2,6.011611E-2,-9.327295E-2,-2.0945545E-1,-5.0433904E-2,4.0532947E-2,-9.111821E-2,1.9817632E-1,-1.8095126E-3],"categories":[],"categories_nodes":[],"categories_segments":[],"categories_sizes":[],"default_left":[0,0,0,0,0,0,0,0,0,0,0,0,0,0,0,0,0,0,0,0,0,0,0,0,0,0,0,0,0,0,0,0,0,0,0,0,0,0,0,0,0,0,0,0,0,0,0,0,0,0,0,0,0,0,0,0,0,0,0,0,0,0,0,0,0,0,0],"id":13,"left_children":[1,3,5,7,9,11,13,15,17,19,-1,21,23,25,27,-1,29,31,-1,33,35,37,39,-1,41,43,-1,45,47,49,51,-1,-1,-1,-1,53,-1,55,-1,-1,57,59,61,63,65,-1,-1,-1,-1,-1,-1,-1,-1,-1,-1,-1,-1,-1,-1,-1,-1,-1,-1,-1,-1,-1,-1],"loss_changes":[2.5805859E1,5.3952484E0,1.2081896E1,6.3971786E0,4.1712418E0,8.846017E0,1.63943E1,1.4998717E1,6.384821E-1,1.2904968E0,0E0,1.3734575E1,6.6624966E0,1.6288063E1,6.783956E0,0E0,5.516002E0,2.3632431E-1,0E0,9.5043945E-1,1.9759374E0,9.723E0,2.9551492E0,0E0,5.064972E0,6.636745E0,0E0,5.975235E0,5.938978E0,3.72223E0,8.049381E0,0E0,0E0,0E0,0E0,2.1947021E0,0E0,1.2866322E1,0E0,0E0,4.0061245E0,9.706298E0,6.898985E-1,2.0917077E0,3.1688242E0,0E0,0E0,0E0,0E0,0E0,0E0,0E0,0E0,0E0,0E0,0E0,0E0,0E0,0E0,0E0,0E0,0E0,0E0,0E0,0E0,0E0,0E0],"parents":[2147483647,0,0,1,1,2,2,3,3,4,4,5,5,6,6,7,7,8,8,9,9,11,11,12,12,13,13,14,14,16,16,17,17,19,19,20,20,21,21,22,22,24,24,25,25,27,27,28,28,29,29,30,30,35,35,37,37,40,40,41,41,42,42,43,43,44,44],"right_children":[2,4,6,8,10,12,14,16,18,20,-1,22,24,26,28,-1,30,32,-1,34,36,38,40,-1,42,44,-1,46,48,50,52,-1,-1,-1,-1,54,-1,56,-1,-1,58,60,62,64,66,-1,-1,-1,-1,-1,-1,-1,-1,-1,-1,-1,-1,-1,-1,-1,-1,-1,-1,-1,-1,-1,-1],"split_conditions":[1.6164529E0,-4.6711722E-1,4.305239E-2,1.5367353E-1,2.4949062E0,-9.9302895E-2,-3.1924045E-1,-2.1925638E0,3.0077583E-1,6.244856E-1,4.117569E-2,4.381389E-2,-2.9523015E-1,2.9093376E-1,-9.549925E-1,2.4466942E-1,5.616571E-1,-6.8065095E-1,-3.7370812E-2,-2.953692E-1,2.9636033E-2,4.0406713E-1,9.4522274E-1,1.06893994E-1,1.2060825E0,2.2950517E-2,3.6796796E-1,-1.5204798E-1,1.5730748E0,-1.0100722E0,-1.1797306E-1,-1.5682876E-1,-6.907124E-2,-4.750479E-4,-9.86764E-2,-2.5180748E-1,-7.648218E-2,1.3242193E-1,-4.3626256E-2,-8.225106E-2,-1.1965064E-2,-1.4610651E-1,-1.9578034E0,-2.7978127E0,3.3210948E-1,-3.2568675E-2,1.8199247E-1,-9.52006E-2,1.03165165E-1,3.8014185E-2,-8.838342E-2,7.628528E-2,-6.64693E-2,-5.0544985E-2,9.980746E-2,1.036368E-2,4.2413297E-1,1.3488816E-1,-5.900926E-2,6.011611E-2,-9.327295E-2,-2.0945545E-1,-5.0433904E-2,4.0532947E-2,-9.111821E-2,1.9817632E-1,-1.8095126E-3],"split_indices":[3,13,22,27,6,19,15,11,25,19,0,9,28,29,14,0,16,8,0,28,11,6,1,0,4,23,0,24,17,9,25,0,0,0,0,5,0,4,0,0,27,23,2,4,16,0,0,0,0,0,0,0,0,0,0,0,0,0,0,0,0,0,0,0,0,0,0],"split_type":[0,0,0,0,0,0,0,0,0,0,0,0,0,0,0,0,0,0,0,0,0,0,0,0,0,0,0,0,0,0,0,0,0,0,0,0,0,0,0,0,0,0,0,0,0,0,0,0,0,0,0,0,0,0,0,0,0,0,0,0,0,0,0,0,0,0,0],"sum_hessian":[1.7452655E2,1.21967896E2,5.255865E1,4.2041584E1,7.992631E1,3.2828217E1,1.9730436E1,3.309548E1,8.946101E0,7.809522E1,1.83109E0,1.0026534E1,2.2801682E1,8.175009E0,1.15554285E1,1.0009165E0,3.2094566E1,6.9632964E0,1.982805E0,7.2829506E1,5.26571E0,3.3785493E0,6.6479845E0,1.3061166E0,2.1495565E1,6.2823505E0,1.8926581E0,3.7441409E0,7.8112874E0,1.8223812E1,1.3870753E1,3.6809025E0,3.2823937E0,1.0089275E0,7.182058E1,2.0222816E0,3.243428E0,2.329603E0,1.0489466E0,4.2311296E0,2.4168546E0,1.8233334E1,3.2622316E0,3.0713832E0,3.2109675E0,1.9375275E0,1.8066133E0,6.8084273E0,1.0028602E0,2.1248393E0,1.6098974E1,7.3984323E0,6.4723215E0,1.0206714E0,1.0016103E0,1.2610943E0,1.0685086E0,1.0479232E0,1.3689314E0,5.0153584E0,1.3217976E1,2.0782247E0,1.1840069E0,1.4146283E0,1.656755E0,2.17961E0,1.0313575E0],"tree_param":{"num_deleted":"0","num_feature":"30","num_nodes":"67","size_leaf_vector":"1"}},{"base_weights":[-4.701039E-1,-8.1268436E-1,-3.925756E-2,-8.6228585E-1,-1.00675516E-1,-2.4787854E-1,1.0271426E0,-3.6758742E-1,-9.188384E-1,-7.5685784E-2,5.8346546E-1,8.1633127E-1,-3.807868E-1,2.001211E0,-4.7768176E-1,5.710802E-1,-8.627964E-2,-9.656302E-2,-4.909963E-1,1.7244445E-1,-4.9944457E-2,1.7880696E0,-3.044714E-1,-2.7942026E-1,-2.0230107E-1,6.6350085E-1,3.1133976E0,-7.905354E-2,4.9504247E-2,1.431845E-1,-7.119829E-2,5.862954E-2,-7.559294E-1,2.1536935E-3,2.7667317E-1,-7.011425E-2,4.980516E-2,8.941177E-1,-4.617041E-1,1.614053E-1,-6.3897744E-2,7.141619E-2,4.272018E-1,-3.4830222E-4,-8.610006E-2,1.7041008E-1,-2.664893E-2,-3.074927E-3,-8.1533566E-2],"categories":[],"categories_nodes":[],"categories_segments":[],"categories_sizes":[],"default_left":[0,0,0,0,0,0,0,0,0,0,0,0,0,0,0,0,0,0,0,0,0,0,0,0,0,0,0,0,0,0,0,0,0,0,0,0,0,0,0,0,0,0,0,0,0,0,0,0,0],"id":14,"left_children":[1,3,5,7,9,11,13,15,17,-1,19,21,23,25,27,29,-1,-1,31,-1,-1,33,35,37,-1,39,41,-1,-1,-1,-1,-1,43,-1,-1,-1,-1,45,47,-1,-1,-1,-1,-1,-1,-1,-1,-1,-1],"loss_changes":[2.461842E1,3.1970482E0,1.69457E1,2.0904694E0,3.6684036E0,9.300207E0,1.9234688E1,5.4065585E0,1.0718689E0,0E0,5.9069533E0,8.575836E0,8.953417E0,9.483557E0,2.1282196E0,5.7160816E0,0E0,0E0,3.1967247E0,0E0,0E0,7.0204344E0,1.7113508E0,1.2181833E1,0E0,6.9677935E0,7.9789276E0,0E0,0E0,0E0,0E0,0E0,6.4372635E-1,0E0,0E0,0E0,0E0,7.72772E0,7.3326797E0,0E0,0E0,0E0,0E0,0E0,0E0,0E0,0E0,0E0,0E0],"parents":[2147483647,0,0,1,1,2,2,3,3,4,4,5,5,6,6,7,7,8,8,10,10,11,11,12,12,13,13,14,14,15,15,18,18,21,21,22,22,23,23,25,25,26,26,32,32,37,37,38,38],"right_children":[2,4,6,8,10,12,14,16,18,-1,20,22,24,26,28,30,-1,-1,32,-1,-1,34,36,38,-1,40,42,-1,-1,-1,-1,-1,44,-1,-1,-1,-1,46,48,-1,-1,-1,-1,-1,-1,-1,-1,-1,-1],"split_conditions":[7.743123E-1,1.0286384E0,3.3184442E-1,-1.9578034E0,-5.9543455E-1,-3.4010336E-1,-4.8946536E-1,-1.1797306E-1,1.2729386E0,-7.5685784E-2,-1.19732745E-1,-5.7327E-1,3.2956805E0,9.7037965E-1,8.6193484E-1,5.024228E-1,-8.627964E-2,-9.656302E-2,-1.0689913E0,1.7244445E-1,-4.9944457E-2,-2.3667695E-1,8.68582E-1,-1.4696203E0,-2.0230107E-1,-2.3108659E0,-2.4780638E0,-7.905354E-2,4.9504247E-2,1.431845E-1,-7.119829E-2,5.862954E-2,-1.3012477E0,2.1536935E-3,2.7667317E-1,-7.011425E-2,4.980516E-2,-1.991378E-1,-5.439674E-1,1.614053E-1,-6.3897744E-2,7.141619E-2,4.272018E-1,-3.4830222E-4,-8.610006E-2,1.7041008E-1,-2.664893E-2,-3.074927E-3,-8.1533566E-2],"split_indices":[3,18,22,2,3,19,11,25,10,0,23,11,4,28,11,10,0,0,13,0,0,8,2,18,0,2,4,0,0,0,0,0,0,0,0,0,0,28,9,0,0,0,0,0,0,0,0,0,0],"split_type":[0,0,0,0,0,0,0,0,0,0,0,0,0,0,0,0,0,0,0,0,0,0,0,0,0,0,0,0,0,0,0,0,0,0,0,0,0,0,0,0,0,0,0,0,0,0,0,0,0],"sum_hessian":[1.6600816E2,9.198308E1,7.402509E1,8.5795166E1,6.1879063E0,6.255496E1,1.1470135E1,9.571096E0,7.6224075E1,3.1042385E0,3.0836675E0,6.3741817E0,5.618078E1,6.7627583E0,4.707377E0,3.252596E0,6.3185E0,6.757646E1,8.647611E0,1.2131001E0,1.8705674E0,3.0952477E0,3.2789338E0,5.401673E1,2.1640441E0,3.7949095E0,2.9678488E0,3.7035234E0,1.0038532E0,1.8772515E0,1.3753444E0,1.4674709E0,7.1801395E0,1.4678013E0,1.6274464E0,2.2788641E0,1.0000697E0,6.737274E0,4.7279457E1,2.0555482E0,1.7393613E0,1.492863E0,1.4749856E0,1.00637E0,6.1737695E0,3.6922112E0,3.0450633E0,2.179988E1,2.547958E1],"tree_param":{"num_deleted":"0","num_feature":"30","num_nodes":"49","size_leaf_vector":"1"}},{"base_weights":[-4.4456887E-1,-7.944101E-1,-3.0575834E-2,-8.4710157E-1,-8.9107245E-2,9.656637E-1,-2.3432559E-1,-3.4245735E-1,-9.091349E-1,6.432692E-1,-6.683779E-1,2.1101472E0,-6.4736605E-2,-3.7331593E-1,6.459548E-1,4.9855193E-1,-8.401353E-2,-9.59397E-2,-4.6886522E-1,-5.9801858E-2,1.7702964E-1,-9.066021E-2,7.7753193E-3,3.9760964E0,-3.365315E-1,-4.9760216E-1,1.215109E-1,-4.8502687E-1,9.085243E-1,1.9698004E0,-6.231477E-1,1.2956734E0,-7.029558E-2,5.3651E-2,-7.396677E-1,7.7733114E-2,5.422132E-1,1.8167961E-2,-6.112064E-2,5.4832548E-2,-9.618371E-2,-4.258069E-2,-8.199434E-1,1.803862E0,-6.012797E-2,2.7504367E-1,-9.365285E-3,-7.6810755E-2,-2.4109407E-4,2.4966991E-1,-5.119413E-2,-6.8989895E-5,-8.5044965E-2,-3.9938193E-2,1.3607687E-1,-6.372074E-2,-1.7768607E-1,2.2836542E-1,5.480615E-2],"categories":[],"categories_nodes":[],"categories_segments":[],"categories_sizes":[],"default_left":[0,0,0,0,0,0,0,0,0,0,0,0,0,0,0,0,0,0,0,0,0,0,0,0,0,0,0,0,0,0,0,0,0,0,0,0,0,0,0,0,0,0,0,0,0,0,0,0,0,0,0,0,0,0,0,0,0,0,0],"id":15,"left_children":[1,3,5,7,9,11,13,15,17,19,21,23,25,27,29,31,-1,-1,33,-1,-1,-1,-1,35,37,39,-1,41,43,45,47,49,-1,-1,51,-1,-1,-1,-1,-1,-1,53,55,57,-1,-1,-1,-1,-1,-1,-1,-1,-1,-1,-1,-1,-1,-1,-1],"loss_changes":[2.3025469E1,3.1286507E0,1.5233075E1,2.1963806E0,3.446704E0,1.5170313E1,7.849242E0,4.7606835E0,1.1154099E0,6.164893E0,8.634001E-1,2.9047813E1,4.8586564E0,8.221501E0,1.608904E1,5.2054176E0,0E0,0E0,2.9025533E0,0E0,0E0,0E0,0E0,1.2073818E1,6.160758E-1,3.6580153E0,0E0,7.4680567E0,7.443243E0,7.61862E0,4.7288227E-1,7.8940315E0,0E0,0E0,6.2739515E-1,0E0,0E0,0E0,0E0,0E0,0E0,1.1994593E1,3.8975086E0,6.7818356E-1,0E0,0E0,0E0,0E0,0E0,0E0,0E0,0E0,0E0,0E0,0E0,0E0,0E0,0E0,0E0],"parents":[2147483647,0,0,1,1,2,2,3,3,4,4,5,5,6,6,7,7,8,8,9,9,10,10,11,11,12,12,13,13,14,14,15,15,18,18,23,23,24,24,25,25,27,27,28,28,29,29,30,30,31,31,34,34,41,41,42,42,43,43],"right_children":[2,4,6,8,10,12,14,16,18,20,22,24,26,28,30,32,-1,-1,34,-1,-1,-1,-1,36,38,40,-1,42,44,46,48,50,-1,-1,52,-1,-1,-1,-1,-1,-1,54,56,58,-1,-1,-1,-1,-1,-1,-1,-1,-1,-1,-1,-1,-1,-1,-1],"split_conditions":[7.743123E-1,1.0286384E0,-5.1227015E-1,-1.9578034E0,-1.2580368E-1,-5.8159447E-1,7.1787566E-1,-1.1797306E-1,1.2729386E0,-2.6882064E-1,2.715047E-1,-4.6711722E-1,6.233949E-1,4.617072E-1,-6.033981E-1,1.1382693E0,-8.401353E-2,-9.59397E-2,-1.0689913E0,-5.9801858E-2,1.7702964E-1,-9.066021E-2,7.7753193E-3,-1.0059165E0,4.0871985E-2,-5.5713594E-1,1.215109E-1,-2.9877895E-2,-1.2440647E-1,1.7006354E-1,7.353521E-1,1.2823166E-1,-7.029558E-2,5.3651E-2,-1.0837136E-1,7.7733114E-2,5.422132E-1,1.8167961E-2,-6.112064E-2,5.4832548E-2,-9.618371E-2,1.1033958E0,1.2854661E0,-3.1188942E-2,-6.012797E-2,2.7504367E-1,-9.365285E-3,-7.6810755E-2,-2.4109407E-4,2.4966991E-1,-5.119413E-2,-6.8989895E-5,-8.5044965E-2,-3.9938193E-2,1.3607687E-1,-6.372074E-2,-1.7768607E-1,2.2836542E-1,5.480615E-2],"split_indices":[3,18,7,2,22,6,21,25,10,22,1,13,23,22,11,1,0,0,13,0,0,0,0,8,26,14,0,19,13,27,29,5,0,0,26,0,0,0,0,0,0,17,15,26,0,0,0,0,0,0,0,0,0,0,0,0,0,0,0],"split_type":[0,0,0,0,0,0,0,0,0,0,0,0,0,0,0,0,0,0,0,0,0,0,0,0,0,0,0,0,0,0,0,0,0,0,0,0,0,0,0,0,0,0,0,0,0,0,0,0,0,0,0,0,0,0,0,0,0,0,0],"sum_hessian":[1.5814844E2,8.5217354E1,7.2931076E1,7.910645E1,6.110898E0,1.1748251E1,6.1182827E1,9.373466E0,6.973299E1,2.6500003E0,3.4608977E0,5.069537E0,6.6787143E0,5.3337162E1,7.845665E0,3.4840796E0,5.889386E0,6.1529537E1,8.203451E0,1.484444E0,1.1655564E0,2.4603033E0,1.0005945E0,2.5214584E0,2.5480788E0,5.447484E0,1.2312304E0,4.9633293E1,3.7038698E0,3.5697806E0,4.2758846E0,2.0473948E0,1.436685E0,1.5325509E0,6.6709E0,1.2636678E0,1.2577904E0,1.0000032E0,1.5480754E0,1.6189129E0,3.828571E0,2.1869467E1,2.7763826E1,2.2028055E0,1.5010642E0,2.348411E0,1.2213694E0,3.2739184E0,1.0019664E0,1.0010556E0,1.046339E0,1.0008559E0,5.670044E0,1.800668E1,3.862786E0,2.4710855E1,3.05297E0,1.001635E0,1.2011706E0],"tree_param":{"num_deleted":"0","num_feature":"30","num_nodes":"59","size_leaf_vector":"1"}},{"base_weights":[-4.1561148E-1,6.1957404E-2,-7.151842E-1,2.3029017E0,-9.350235E-2,-7.62977E-1,1.3044845E-1,4.116388E-1,-5.7417165E-2,-3.5782942E-1,7.859596E-1,-8.421121E-1,-1.3110405E-1,-7.1937007E-1,4.1517255E-1,1.6688071E0,-6.9890894E-2,-1.0503909E-1,-8.73132E-1,-8.325773E-2,5.310814E-1,-4.539365E-2,-1.0516487E0,-4.3968412E-1,1.4995685E0,2.628975E0,3.746239E-1,7.666862E-1,-9.5730856E-2,9.896602E-2,-7.1359746E-2,-8.9630574E-1,9.130218E-3,1.7370643E-1,-6.6155925E-2,1.9744371E-1,-5.616734E-2,-1.2947892E-1,1.8218769E-2,-7.300537E-2,8.662377E-2,-7.670294E-2,2.1736012E-1,4.7870655E-2,3.2784045E-1,1.375014E-1,-6.292978E-2,9.517841E-2,5.6759785E-3,-4.0189665E-2,-9.3015105E-2,-5.4330554E-2,9.8600835E-2],"categories":[],"categories_nodes":[],"categories_segments":[],"categories_sizes":[],"default_left":[0,0,0,0,0,0,0,0,0,0,0,0,0,0,0,0,0,0,0,0,0,0,0,0,0,0,0,0,0,0,0,0,0,0,0,0,0,0,0,0,0,0,0,0,0,0,0,0,0,0,0,0,0],"id":16,"left_children":[1,3,5,7,9,11,-1,-1,-1,13,15,17,19,21,23,25,27,29,31,-1,33,35,37,39,41,43,45,47,-1,-1,-1,49,-1,-1,51,-1,-1,-1,-1,-1,-1,-1,-1,-1,-1,-1,-1,-1,-1,-1,-1,-1,-1],"loss_changes":[2.1875525E1,2.1028227E1,1.005442E1,2.2788275E1,1.3491767E1,4.5055847E0,0E0,0E0,0E0,1.2702239E1,1.0275969E1,1.7798042E0,5.7648783E0,6.806201E0,1.4357838E1,7.289358E0,6.5149794E0,3.6657648E0,1.8343124E0,0E0,4.8002353E0,1.2737543E1,6.3719234E0,4.0590086E0,1.1965508E1,3.5366135E0,4.884763E0,5.456619E-1,0E0,0E0,0E0,9.090347E-1,0E0,0E0,3.2034705E0,0E0,0E0,0E0,0E0,0E0,0E0,0E0,0E0,0E0,0E0,0E0,0E0,0E0,0E0,0E0,0E0,0E0,0E0],"parents":[2147483647,0,0,1,1,2,2,3,3,4,4,5,5,9,9,10,10,11,11,12,12,13,13,14,14,15,15,16,16,17,17,18,18,20,20,21,21,22,22,23,23,24,24,25,25,26,26,27,27,31,31,34,34],"right_children":[2,4,6,8,10,12,-1,-1,-1,14,16,18,20,22,24,26,28,30,32,-1,34,36,38,40,42,44,46,48,-1,-1,-1,50,-1,-1,52,-1,-1,-1,-1,-1,-1,-1,-1,-1,-1,-1,-1,-1,-1,-1,-1,-1,-1],"split_conditions":[-8.0732787E-1,-2.4988065E0,1.7754894E0,-9.359836E-1,9.7037965E-1,1.0680971E0,1.3044845E-1,4.116388E-1,-5.7417165E-2,1.2019374E-1,2.153579E-2,-2.6738498E0,3.1145108E-1,1.5403353E0,1.8930173E0,-3.454733E-1,-2.698762E0,-2.1693784E-1,1.7788191E0,-8.325773E-2,-6.9996583E-1,-2.6738498E0,2.3189098E-1,8.9136916E-1,-8.978416E-1,-2.7157715E-1,-4.8946536E-1,-2.6237965E0,-9.5730856E-2,9.896602E-2,-7.1359746E-2,-4.999023E-1,9.130218E-3,1.7370643E-1,-1.4984849E-1,1.9744371E-1,-5.616734E-2,-1.2947892E-1,1.8218769E-2,-7.300537E-2,8.662377E-2,-7.670294E-2,2.1736012E-1,4.7870655E-2,3.2784045E-1,1.375014E-1,-6.292978E-2,9.517841E-2,5.6759785E-3,-4.0189665E-2,-9.3015105E-2,-5.4330554E-2,9.8600835E-2],"split_indices":[13,7,21,6,28,6,0,0,0,0,26,11,3,1,3,5,9,28,18,0,12,11,25,29,21,12,11,0,0,0,0,19,0,0,7,0,0,0,0,0,0,0,0,0,0,0,0,0,0,0,0,0,0],"split_type":[0,0,0,0,0,0,0,0,0,0,0,0,0,0,0,0,0,0,0,0,0,0,0,0,0,0,0,0,0,0,0,0,0,0,0,0,0,0,0,0,0,0,0,0,0,0,0,0,0,0,0,0,0],"sum_hessian":[1.5159471E2,5.8742523E1,9.285218E1,2.9146402E0,5.582788E1,9.13136E1,1.538588E0,1.5235538E0,1.3910865E0,4.338224E1,1.24456415E1,8.085471E1,1.0458882E1,2.960505E1,1.3777191E1,5.6586313E0,6.7870097E0,3.4425054E0,7.741221E1,4.953826E0,5.5050564E0,1.0151303E1,1.9453747E1,8.036417E0,5.7407746E0,2.656425E0,3.0022063E0,3.5636094E0,3.2234004E0,1.006227E0,2.4362783E0,7.566476E1,1.7474538E0,1.1912011E0,4.313855E0,1.4915575E0,8.659745E0,1.6209997E1,3.243749E0,6.9353256E0,1.1010913E0,1.2842393E0,4.4565353E0,1.0191447E0,1.6372805E0,1.3186009E0,1.6836053E0,2.5564027E0,1.0072066E0,5.6727185E0,6.9992035E1,3.3006587E0,1.0131966E0],"tree_param":{"num_deleted":"0","num_feature":"30","num_nodes":"53","size_leaf_vector":"1"}},{"base_weights":[-3.8889205E-1,-7.591911E-1,4.3077287E-3,-8.188744E-1,-3.410359E-2,5.499486E-1,-2.9036933E-1,-2.894837E-1,-8.90708E-1,7.839013E-1,-5.700342E-1,1.6954691E0,7.817003E-3,3.9504826E-2,-7.479424E-1,4.9340883E-1,-8.205018E-1,-9.473247E-2,-4.1921762E-1,1.7495868E-1,-5.2041065E-2,-7.261442E-2,-5.2938965E-5,2.6823413E0,-4.2390817E-1,1.2127469E0,-3.031155E-1,-3.7727407E-1,1.061493E0,3.0337718E-1,-8.878418E-1,1.1548395E0,-6.997614E-2,-9.2339605E-2,-3.220373E-2,-7.388545E-1,4.988449E-2,6.7464685E-1,3.9876902E0,-2.1377919E-4,-5.9504766E-2,-3.3328492E-2,2.6341176E-1,-8.063401E-1,5.3310263E-1,9.329813E-1,-6.174252E-1,2.0282078E0,-4.3863055E-1,9.9707365E-2,-5.1632077E-2,-9.4078824E-2,-2.8497826E-3,2.0612533E-1,-1.3352881E-2,-8.6718E-2,-1.482346E-3,1.6670315E-1,-4.1125815E-2,5.608495E-2,5.3216165E-1,-1.8160815E-3,-8.938592E-2,-5.7088323E-2,1.8760352E-1,-5.4324932E-2,2.3398076E-1,-8.490354E-2,4.047046E-2,3.032572E-1,-2.7216641E-2,6.627493E-2,-1.347277E-1],"categories":[],"categories_nodes":[],"categories_segments":[],"categories_sizes":[],"default_left":[0,0,0,0,0,0,0,0,0,0,0,0,0,0,0,0,0,0,0,0,0,0,0,0,0,0,0,0,0,0,0,0,0,0,0,0,0,0,0,0,0,0,0,0,0,0,0,0,0,0,0,0,0,0,0,0,0,0,0,0,0,0,0,0,0,0,0,0,0,0,0,0,0],"id":17,"left_children":[1,3,5,7,9,11,13,15,17,19,21,23,25,27,29,31,33,-1,35,-1,-1,-1,-1,37,39,41,43,45,47,49,51,53,-1,-1,-1,55,-1,57,59,-1,-1,-1,-1,61,63,65,67,69,71,-1,-1,-1,-1,-1,-1,-1,-1,-1,-1,-1,-1,-1,-1,-1,-1,-1,-1,-1,-1,-1,-1,-1,-1],"loss_changes":[2.1152552E1,3.2095833E0,1.1646891E1,2.369072E0,3.398557E0,1.5759968E1,7.130507E0,4.4519296E0,1.2136879E0,4.7976875E0,4.1274512E-1,1.8192276E1,7.20292E0,1.2448962E1,3.175314E0,4.405944E0,1.9396782E-2,0E0,2.7933342E0,0E0,0E0,0E0,0E0,1.2248264E1,2.4805766E-1,9.540943E0,6.8691134E0,7.1305213E0,1.3152777E1,2.2580483E0,7.781668E-1,4.1409535E0,0E0,0E0,0E0,5.9405756E-1,0E0,4.4028816E0,1.1874462E1,0E0,0E0,0E0,0E0,6.7020845E-1,1.0486837E1,8.799019E0,4.653528E0,1.3117168E1,5.0321198E0,0E0,0E0,0E0,0E0,0E0,0E0,0E0,0E0,0E0,0E0,0E0,0E0,0E0,0E0,0E0,0E0,0E0,0E0,0E0,0E0,0E0,0E0,0E0,0E0],"parents":[2147483647,0,0,1,1,2,2,3,3,4,4,5,5,6,6,7,7,8,8,9,9,10,10,11,11,12,12,13,13,14,14,15,15,16,16,18,18,23,23,24,24,25,25,26,26,27,27,28,28,29,29,30,30,31,31,35,35,37,37,38,38,43,43,44,44,45,45,46,46,47,47,48,48],"right_children":[2,4,6,8,10,12,14,16,18,20,22,24,26,28,30,32,34,-1,36,-1,-1,-1,-1,38,40,42,44,46,48,50,52,54,-1,-1,-1,56,-1,58,60,-1,-1,-1,-1,62,64,66,68,70,72,-1,-1,-1,-1,-1,-1,-1,-1,-1,-1,-1,-1,-1,-1,-1,-1,-1,-1,-1,-1,-1,-1,-1,-1],"split_conditions":[7.743123E-1,1.0286384E0,-1.0884872E-1,-1.9578034E0,-2.6859987E-1,-4.2678928E-1,-8.0732787E-1,-1.1797306E-1,1.2729386E0,-1.5090115E-1,4.0221623E-1,-2.1546154E-1,-1.3562379E0,1.6562234E-1,-3.538602E-1,5.233146E-1,1.1245098E0,-9.473247E-2,1.3051847E-1,1.7495868E-1,-5.2041065E-2,-7.261442E-2,-5.2938965E-5,1.1148605E-1,-3.287704E-1,3.4367222E-2,1.3025126E0,-3.336715E-1,1.7837138E-1,-5.9708244E-1,1.2139797E0,-6.369272E-1,-6.997614E-2,-9.2339605E-2,-3.220373E-2,3.8070068E-1,4.988449E-2,-7.0356387E-1,-7.288855E-1,-2.1377919E-4,-5.9504766E-2,-3.3328492E-2,2.6341176E-1,-1.0351479E0,-2.197042E0,1.1003862E-1,1.0082047E0,-2.7079335E-1,-1.6906065E0,9.9707365E-2,-5.1632077E-2,-9.4078824E-2,-2.8497826E-3,2.0612533E-1,-1.3352881E-2,-8.6718E-2,-1.482346E-3,1.6670315E-1,-4.1125815E-2,5.608495E-2,5.3216165E-1,-1.8160815E-3,-8.938592E-2,-5.7088323E-2,1.8760352E-1,-5.4324932E-2,2.3398076E-1,-8.490354E-2,4.047046E-2,3.032572E-1,-2.7216641E-2,6.627493E-2,-1.347277E-1],"split_indices":[3,18,7,2,2,15,13,25,10,12,24,11,14,21,19,15,1,0,20,0,0,0,0,22,14,0,16,25,27,18,11,9,0,0,0,5,0,9,20,0,0,0,0,12,13,27,28,8,17,0,0,0,0,0,0,0,0,0,0,0,0,0,0,0,0,0,0,0,0,0,0,0,0],"split_type":[0,0,0,0,0,0,0,0,0,0,0,0,0,0,0,0,0,0,0,0,0,0,0,0,0,0,0,0,0,0,0,0,0,0,0,0,0,0,0,0,0,0,0,0,0,0,0,0,0,0,0,0,0,0,0,0,0,0,0,0,0,0,0,0,0,0,0,0,0,0,0,0,0],"sum_hessian":[1.4425456E2,7.381134E1,7.044322E1,6.807834E1,5.733002E0,2.4398777E1,4.6044445E1,8.73489E0,5.9343445E1,2.0861561E0,3.646846E0,7.1543245E0,1.7244453E1,2.7286612E1,1.8757835E1,3.5588374E0,5.176053E0,5.2080406E1,7.2630377E0,1.0025225E0,1.0836337E0,2.6463864E0,1.0004598E0,4.7001214E0,2.4542031E0,2.9422503E0,1.4302203E1,1.9830387E1,7.4562235E0,2.0657268E0,1.6692108E1,2.3102703E0,1.248567E0,3.5837958E0,1.5922571E0,5.532143E0,1.7308942E0,2.4494984E0,2.2506227E0,1.0006385E0,1.4535648E0,1.7760024E0,1.1662478E0,8.951215E0,5.3509884E0,2.6247694E0,1.7205618E1,4.320175E0,3.1360488E0,1.0016531E0,1.0640737E0,1.5634078E1,1.0580299E0,1.004015E0,1.3062553E0,4.5313134E0,1.0008297E0,1.0002438E0,1.4492546E0,1.0286032E0,1.2220197E0,1.0152833E0,7.935931E0,3.252281E0,2.0987074E0,1.5803266E0,1.0444429E0,1.4165193E1,3.0404246E0,2.7856429E0,1.5345321E0,1.540008E0,1.5960408E0],"tree_param":{"num_deleted":"0","num_feature":"30","num_nodes":"73","size_leaf_vector":"1"}},{"base_weights":[-3.62724E-1,6.088445E-2,-7.0101684E-1,1.9339005E0,-7.9149015E-2,1.7079234E-1,-7.773429E-1,3.186958E0,-5.5695303E-2,1.05758056E-1,-9.246799E-1,1.6979326E-1,-6.269549E-1,1.1260533E-1,-8.502313E-1,4.838201E-2,4.2815256E-1,-8.083776E-1,3.3410066E-1,-1.2299409E0,9.988763E-2,-7.706877E-2,-1.4818164E-4,1.5285966E-1,-5.940395E-1,-3.0408025E-1,-9.00738E-1,-8.957217E-2,-1.5184631E-3,8.692981E-1,-4.0847528E-1,-4.78607E-1,-1.41489E-1,-7.453249E-2,-2.1413321E-4,-8.128242E-2,7.761013E-2,-1.9251156E-1,-9.3090457E-1,1.4615004E-1,7.144996E-3,6.7213774E-2,-9.429064E-2,-7.7493126E-3,-6.1820287E-2,4.989773E-2,-6.3251965E-2,-9.473116E-2,-7.7405386E-3],"categories":[],"categories_nodes":[],"categories_segments":[],"categories_sizes":[],"default_left":[0,0,0,0,0,0,0,0,0,0,0,0,0,0,0,0,0,0,0,0,0,0,0,0,0,0,0,0,0,0,0,0,0,0,0,0,0,0,0,0,0,0,0,0,0,0,0,0,0],"id":18,"left_children":[1,3,5,7,9,11,13,15,-1,17,19,-1,21,23,25,-1,-1,27,29,31,-1,-1,-1,-1,33,35,37,-1,-1,39,41,43,-1,-1,-1,-1,-1,45,47,-1,-1,-1,-1,-1,-1,-1,-1,-1,-1],"loss_changes":[1.9939304E1,1.6563625E1,5.274761E0,1.5482296E1,9.349637E0,9.641861E0,4.7164726E0,7.0136967E0,0E0,1.05930195E1,7.524066E0,0E0,4.8028135E-1,7.187422E0,1.5455208E0,0E0,0E0,6.914482E-1,1.6362474E1,6.7088985E-1,0E0,0E0,0E0,0E0,4.377619E-1,4.5286818E0,1.0998001E0,0E0,0E0,1.110631E1,1.0769546E1,1.4401305E-1,0E0,0E0,0E0,0E0,0E0,1.4433514E0,7.2709274E-1,0E0,0E0,0E0,0E0,0E0,0E0,0E0,0E0,0E0,0E0],"parents":[2147483647,0,0,1,1,2,2,3,3,4,4,5,5,6,6,7,7,9,9,10,10,12,12,13,13,14,14,17,17,18,18,19,19,24,24,25,25,26,26,29,29,30,30,31,31,37,37,38,38],"right_children":[2,4,6,8,10,12,14,16,-1,18,20,-1,22,24,26,-1,-1,28,30,32,-1,-1,-1,-1,34,36,38,-1,-1,40,42,44,-1,-1,-1,-1,-1,46,48,-1,-1,-1,-1,-1,-1,-1,-1,-1,-1],"split_conditions":[-6.4854234E-1,-2.4988065E0,-1.5010213E0,-9.359836E-1,1.696449E0,-3.444638E-1,-1.4696203E0,-1.0014759E-1,-5.5695303E-2,-4.9595252E-1,4.3982515E0,1.6979326E-1,-6.610909E-3,-1.4252023E0,-4.1045654E-1,4.838201E-2,4.2815256E-1,1.188153E0,1.7837138E-1,5.347639E-1,9.988763E-2,-7.706877E-2,-1.4818164E-4,1.5285966E-1,7.197694E-2,5.616571E-1,-9.526238E-1,-8.957217E-2,-1.5184631E-3,-2.786575E-1,5.567099E-1,-5.415395E-1,-1.41489E-1,-7.453249E-2,-2.1413321E-4,-8.128242E-2,7.761013E-2,-3.0655837E-1,1.6929147E0,1.4615004E-1,7.144996E-3,6.7213774E-2,-9.429064E-2,-7.7493126E-3,-6.1820287E-2,4.989773E-2,-6.3251965E-2,-9.473116E-2,-7.7405386E-3],"split_indices":[13,7,12,6,4,7,18,23,0,10,3,0,11,14,20,0,0,6,27,6,0,0,0,0,8,16,24,0,0,11,18,5,0,0,0,0,0,5,14,0,0,0,0,0,0,0,0,0,0],"split_type":[0,0,0,0,0,0,0,0,0,0,0,0,0,0,0,0,0,0,0,0,0,0,0,0,0,0,0,0,0,0,0,0,0,0,0,0,0,0,0,0,0,0,0,0,0,0,0,0,0],"sum_hessian":[1.3784235E2,6.1567673E1,7.627467E1,3.391704E0,5.817597E1,6.040573E0,7.02341E1,2.0705976E0,1.3211064E0,4.8454494E1,9.721475E0,1.685529E0,4.3550444E0,5.2755914E0,6.495851E1,1.0124E0,1.0581976E0,9.176709E0,3.9277786E1,8.701215E0,1.0202595E0,3.3524816E0,1.0025625E0,1.3690608E0,3.9065306E0,6.092983E0,5.886553E1,8.149995E0,1.0267141E0,2.2727049E1,1.655074E1,2.4275117E0,6.273703E0,2.9048567E0,1.0016739E0,4.3103876E0,1.7825949E0,2.7064872E0,5.6159042E1,1.2567228E1,1.0159821E1,5.3915076E0,1.1159231E1,1.0282036E0,1.3993082E0,1.0003624E0,1.7061249E0,5.4992004E1,1.1670382E0],"tree_param":{"num_deleted":"0","num_feature":"30","num_nodes":"49","size_leaf_vector":"1"}},{"base_weights":[-3.3991995E-1,-7.2252196E-1,3.0215573E-2,-7.8864187E-1,2.3007186E-2,-1.4226577E-1,8.187626E-1,-3.871734E-1,-9.123701E-1,-7.129293E-2,6.822721E-1,1.1890556E0,-2.2235824E-1,1.5445585E0,-4.4699097E-1,-6.063943E-1,1.2100774E-1,-2.3849128E-1,-9.533464E-1,1.6641918E-1,-4.3641496E-2,2.1460178E-1,-5.09646E-2,5.696355E-1,-3.5952938E-1,2.0444643E0,-1.1763618E-2,-7.743791E-2,4.826831E-2,-1.909485E-1,-1.030635E-1,-6.597304E-2,4.9864467E-2,-9.7618245E-2,-9.566586E-3,3.738846E-3,2.0270018E-1,2.2498643E-1,-5.365794E-1,2.2219365E-2,2.661328E0,6.91262E-2,-8.190159E-2,1.14714645E-1,-8.360253E-2,-6.0650785E-2,7.6024875E-2,-6.5875165E-2,4.1679807E-2,4.4024763E-1,7.707488E-2],"categories":[],"categories_nodes":[],"categories_segments":[],"categories_sizes":[],"default_left":[0,0,0,0,0,0,0,0,0,0,0,0,0,0,0,0,0,0,0,0,0,0,0,0,0,0,0,0,0,0,0,0,0,0,0,0,0,0,0,0,0,0,0,0,0,0,0,0,0,0,0],"id":19,"left_children":[1,3,5,7,9,11,13,15,17,-1,19,21,23,25,27,29,-1,31,33,-1,-1,-1,-1,35,37,39,-1,-1,-1,41,-1,-1,-1,-1,-1,43,-1,45,47,-1,49,-1,-1,-1,-1,-1,-1,-1,-1,-1,-1],"loss_changes":[1.893604E1,3.2575111E0,9.480261E0,2.6464844E0,3.5551643E0,6.37872E0,1.2177841E1,6.323619E0,1.0269775E0,0E0,4.9523716E0,6.639414E0,6.1723914E0,7.030712E0,1.9968314E0,2.394701E0,0E0,1.5515964E0,7.387886E-1,0E0,0E0,0E0,0E0,6.999445E0,5.0296354E0,6.5317154E0,0E0,0E0,0E0,5.3624587E0,0E0,0E0,0E0,0E0,0E0,7.797292E0,0E0,5.682714E0,4.5494986E0,0E0,1.1890671E1,0E0,0E0,0E0,0E0,0E0,0E0,0E0,0E0,0E0,0E0],"parents":[2147483647,0,0,1,1,2,2,3,3,4,4,5,5,6,6,7,7,8,8,10,10,11,11,12,12,13,13,14,14,15,15,17,17,18,18,23,23,24,24,25,25,29,29,35,35,37,37,38,38,40,40],"right_children":[2,4,6,8,10,12,14,16,18,-1,20,22,24,26,28,30,-1,32,34,-1,-1,-1,-1,36,38,40,-1,-1,-1,42,-1,-1,-1,-1,-1,44,-1,46,48,-1,50,-1,-1,-1,-1,-1,-1,-1,-1,-1,-1],"split_conditions":[7.743123E-1,1.0286384E0,3.3184442E-1,-8.772624E-1,-5.9543455E-1,-1.7498895E0,-4.8946536E-1,1.3154042E0,-1.5010213E0,-7.129293E-2,-1.19732745E-1,-4.6711722E-1,-1.440414E-1,3.3960575E-1,9.4489413E-1,8.2485366E-1,1.2100774E-1,1.2700522E-1,1.6757205E0,1.6641918E-1,-4.3641496E-2,2.1460178E-1,-5.09646E-2,-4.5441264E-1,-9.549925E-1,-4.0101996E-1,-1.1763618E-2,-7.743791E-2,4.826831E-2,-4.8982376E-1,-1.030635E-1,-6.597304E-2,4.9864467E-2,-9.7618245E-2,-9.566586E-3,-6.572188E-1,2.0270018E-1,-6.7308345E-3,7.1787566E-1,2.2219365E-2,6.2650084E-2,6.91262E-2,-8.190159E-2,1.14714645E-1,-8.360253E-2,-6.0650785E-2,7.6024875E-2,-6.5875165E-2,4.1679807E-2,4.4024763E-1,7.707488E-2],"split_indices":[3,18,22,9,3,12,11,0,12,0,23,13,26,13,11,4,0,20,15,0,0,0,0,0,14,20,0,0,0,13,0,0,0,0,0,15,0,26,21,0,7,0,0,0,0,0,0,0,0,0,0],"split_type":[0,0,0,0,0,0,0,0,0,0,0,0,0,0,0,0,0,0,0,0,0,0,0,0,0,0,0,0,0,0,0,0,0,0,0,0,0,0,0,0,0,0,0,0,0,0,0,0,0,0,0],"sum_hessian":[1.3256116E2,6.471473E1,6.784643E1,5.9389713E1,5.3250165E0,5.634213E1,1.1504303E1,1.4964079E1,4.4425636E1,2.47773E0,2.8472867E0,2.4114952E0,5.3930634E1,7.171706E0,4.332597E0,1.3703623E1,1.2604557E0,2.9374678E0,4.1488167E1,1.2566454E0,1.5906411E0,1.3740798E0,1.0374153E0,7.496259E0,4.6434372E1,5.336709E0,1.8349968E0,3.3277576E0,1.0048394E0,7.656219E0,6.047404E0,1.9360902E0,1.0013777E0,4.0277596E1,1.2105713E0,6.121745E0,1.3745139E0,1.0732191E1,3.5702183E1,1.6936661E0,3.643043E0,3.1420884E0,4.5141306E0,2.4372268E0,3.6845183E0,4.150916E0,6.581275E0,3.1920683E1,3.781499E0,1.2048166E0,2.4382267E0],"tree_param":{"num_deleted":"0","num_feature":"30","num_nodes":"51","size_leaf_vector":"1"}},{"base_weights":[-3.140284E-1,7.5919665E-2,-6.629356E-1,1.8551818E0,-4.7244903E-2,-7.548833E-1,1.5461232E-1,2.8104196E0,-4.9149208E-2,-2.56441E-1,5.908456E-1,-8.7716466E-1,-2.6835275E-1,1.4734858E-1,-2.6548693E-1,3.755592E-1,4.6937563E-2,7.5141035E-2,-7.6843756E-1,1.2851707E0,-2.7901936E-1,-9.5460033E-1,-1.6325155E-1,4.0934148E-1,-6.711306E-1,-7.857715E-2,6.000385E-1,-1.4681114E-1,1.8467171E0,-9.640343E-1,2.0414443E-1,5.748519E-1,2.5612932E-1,7.723941E-2,-8.008177E-1,-4.7766133E-3,-9.768734E-2,-7.6679565E-2,8.581438E-2,1.4756748E-1,-3.7789983E-1,-8.64207E-2,8.107453E-3,-5.2179027E-2,1.4671578E-1,-7.046529E-2,2.1355795E-2,2.3753905E-1,3.409591E-2,-1.0577571E-1,9.323478E-4,-7.982577E-2,1.3416776E-1,-8.766803E-2,1.1515995E-1,-7.5694616E-3,-9.479818E-2,-6.808269E-2,2.8015092E-2],"categories":[],"categories_nodes":[],"categories_segments":[],"categories_sizes":[],"default_left":[0,0,0,0,0,0,0,0,0,0,0,0,0,0,0,0,0,0,0,0,0,0,0,0,0,0,0,0,0,0,0,0,0,0,0,0,0,0,0,0,0,0,0,0,0,0,0,0,0,0,0,0,0,0,0,0,0,0,0],"id":20,"left_children":[1,3,5,7,9,11,13,15,-1,17,19,21,23,-1,25,-1,-1,27,29,31,33,35,37,39,41,-1,43,45,47,49,51,53,-1,-1,55,-1,-1,-1,-1,-1,57,-1,-1,-1,-1,-1,-1,-1,-1,-1,-1,-1,-1,-1,-1,-1,-1,-1,-1],"loss_changes":[1.7613087E1,1.3642603E1,5.245701E0,1.0413623E1,8.003874E0,3.4236145E0,4.672903E0,4.9029865E0,0E0,7.697102E0,9.313456E0,2.536892E0,4.0398536E0,0E0,3.4923925E0,0E0,0E0,1.1368197E1,3.578493E0,6.1633167E0,4.6800313E0,8.367233E-1,4.3398623E0,5.3956056E0,1.3815994E0,0E0,3.7670698E0,5.3785057E0,1.7500334E0,1.3759499E0,5.4059453E0,6.6193647E0,0E0,0E0,5.086038E-1,0E0,0E0,0E0,0E0,0E0,1.0103421E0,0E0,0E0,0E0,0E0,0E0,0E0,0E0,0E0,0E0,0E0,0E0,0E0,0E0,0E0,0E0,0E0,0E0,0E0],"parents":[2147483647,0,0,1,1,2,2,3,3,4,4,5,5,6,6,7,7,9,9,10,10,11,11,12,12,14,14,17,17,18,18,19,19,20,20,21,21,22,22,23,23,24,24,26,26,27,27,28,28,29,29,30,30,31,31,34,34,40,40],"right_children":[2,4,6,8,10,12,14,16,-1,18,20,22,24,-1,26,-1,-1,28,30,32,34,36,38,40,42,-1,44,46,48,50,52,54,-1,-1,56,-1,-1,-1,-1,-1,58,-1,-1,-1,-1,-1,-1,-1,-1,-1,-1,-1,-1,-1,-1,-1,-1,-1,-1],"split_conditions":[-6.4854234E-1,-2.7909229E0,1.2827666E0,-9.359836E-1,9.7037965E-1,1.7242383E0,-1.2285153E0,-8.8310134E-1,-4.9149208E-2,1.7837138E-1,-3.454733E-1,9.089928E-1,-2.0581283E-1,1.4734858E-1,3.4290975E-1,3.755592E-1,4.6937563E-2,4.7956082E-1,6.145082E-1,-6.8164116E-1,-9.9857795E-1,-1.9461558E0,4.0599135E-1,-7.2904944E-2,6.069459E-1,-7.857715E-2,-5.8613944E-1,-2.504232E-2,-3.0502353E0,1.6890572E0,-9.096721E-2,7.5787556E-1,2.5612932E-1,7.723941E-2,-1.4606311E0,-4.7766133E-3,-9.768734E-2,-7.6679565E-2,8.581438E-2,1.4756748E-1,-2.9877895E-2,-8.64207E-2,8.107453E-3,-5.2179027E-2,1.4671578E-1,-7.046529E-2,2.1355795E-2,2.3753905E-1,3.409591E-2,-1.0577571E-1,9.323478E-4,-7.982577E-2,1.3416776E-1,-8.766803E-2,1.1515995E-1,-7.5694616E-3,-9.479818E-2,-6.808269E-2,2.8015092E-2],"split_indices":[13,7,6,6,28,3,10,11,0,27,5,21,28,0,22,0,0,20,29,5,15,15,18,25,8,0,8,27,13,20,22,3,0,0,14,0,0,0,0,0,19,0,0,0,0,0,0,0,0,0,0,0,0,0,0,0,0,0,0],"split_type":[0,0,0,0,0,0,0,0,0,0,0,0,0,0,0,0,0,0,0,0,0,0,0,0,0,0,0,0,0,0,0,0,0,0,0,0,0,0,0,0,0,0,0,0,0,0,0,0,0,0,0,0,0,0,0,0,0,0,0],"sum_hessian":[1.2808504E2,6.0854652E1,6.7230385E1,3.0293517E0,5.78253E1,6.050247E1,6.7279167E0,2.0125172E0,1.0168343E0,4.39986E1,1.38267E1,4.7708767E1,1.2793703E1,1.019571E0,5.7083454E0,1.0032338E0,1.0092835E0,2.7222107E1,1.6776491E1,7.423686E0,6.4030137E0,4.2736183E1,4.972584E0,4.7631555E0,8.030547E0,3.6227708E0,2.0855749E0,2.5006317E1,2.2157905E0,1.3974798E1,2.801694E0,5.700902E0,1.7227842E0,1.964444E0,4.4385695E0,1.0998787E0,4.1636303E1,3.2823215E0,1.6902624E0,1.6515759E0,3.1115794E0,6.2718005E0,1.758747E0,1.0828694E0,1.0027055E0,9.439249E0,1.5567068E1,1.2125313E0,1.0032592E0,1.2668283E1,1.3065143E0,1.6478513E0,1.1538426E0,1.4731938E0,4.2277083E0,1.0043213E0,3.4342482E0,2.1070216E0,1.0045577E0],"tree_param":{"num_deleted":"0","num_feature":"30","num_nodes":"59","size_leaf_vector":"1"}},{"base_weights":[-2.8944698E-1,-6.817564E-1,5.4178298E-2,-7.5551355E-1,7.327097E-2,5.085862E-1,-2.1368267E-1,-3.3889648E-1,-8.9751494E-1,7.893961E-1,-5.931261E-1,2.8414044E-1,2.713501E-1,6.7208014E-2,-6.890592E-1,-5.6254214E-1,1.0580384E-1,-1.8198392E-1,-9.4515014E-1,-5.365221E-2,1.7278801E-1,6.3990853E-3,-8.5903935E-2,1.7044841E0,3.8586244E-2,-2.8953165E-1,8.685828E-1,3.702355E-2,-8.5909426E-1,-1.9657958E-1,-1.04646556E-1,4.975639E-2,-6.247319E-2,-9.7182184E-2,-7.978133E-3,-8.812324E-3,2.8727695E-1,9.065226E-1,-2.1805914E-1,8.913276E-1,-5.139508E-1,1.6697623E0,-3.348834E-1,-9.24366E-2,-1.7399956E-3,4.8328634E-2,-8.0514416E-2,-3.888779E-2,2.0913275E-1,2.265788E-2,-7.719571E-2,-5.4875474E-2,2.2297409E-1,-2.5388414E-2,-1.3084432E-1,2.4515145E-1,-2.761867E-2,-9.9897586E-2,9.223541E-2],"categories":[],"categories_nodes":[],"categories_segments":[],"categories_sizes":[],"default_left":[0,0,0,0,0,0,0,0,0,0,0,0,0,0,0,0,0,0,0,0,0,0,0,0,0,0,0,0,0,0,0,0,0,0,0,0,0,0,0,0,0,0,0,0,0,0,0,0,0,0,0,0,0,0,0,0,0,0,0],"id":21,"left_children":[1,3,5,7,9,11,13,15,17,19,21,-1,23,25,27,29,-1,31,33,-1,-1,-1,-1,35,37,39,41,-1,43,45,-1,-1,-1,-1,-1,-1,-1,47,49,51,53,55,57,-1,-1,-1,-1,-1,-1,-1,-1,-1,-1,-1,-1,-1,-1,-1,-1],"loss_changes":[1.677006E1,3.2870312E0,8.275366E0,2.8286648E0,3.367838E0,1.3163639E1,5.7768774E0,5.3026752E0,1.1534462E0,5.105282E0,7.046871E-1,0E0,7.926901E0,8.224049E0,3.2051177E0,2.2101378E0,0E0,1.4137404E0,7.584877E-1,0E0,0E0,0E0,0E0,7.215825E0,5.017031E0,5.770767E0,9.082978E0,0E0,7.592602E-1,4.1122394E0,0E0,0E0,0E0,0E0,0E0,0E0,0E0,8.688982E0,4.4858894E0,8.099129E0,3.2795463E0,9.004795E0,4.5667577E0,0E0,0E0,0E0,0E0,0E0,0E0,0E0,0E0,0E0,0E0,0E0,0E0,0E0,0E0,0E0,0E0],"parents":[2147483647,0,0,1,1,2,2,3,3,4,4,5,5,6,6,7,7,8,8,9,9,10,10,12,12,13,13,14,14,15,15,17,17,18,18,23,23,24,24,25,25,26,26,28,28,29,29,37,37,38,38,39,39,40,40,41,41,42,42],"right_children":[2,4,6,8,10,12,14,16,18,20,22,-1,24,26,28,30,-1,32,34,-1,-1,-1,-1,36,38,40,42,-1,44,46,-1,-1,-1,-1,-1,-1,-1,48,50,52,54,56,58,-1,-1,-1,-1,-1,-1,-1,-1,-1,-1,-1,-1,-1,-1,-1,-1],"split_conditions":[7.743123E-1,1.0286384E0,-1.0884872E-1,-8.772624E-1,1.1188747E-2,-3.62882E0,-8.0732787E-1,1.3154042E0,-1.5010213E0,-6.990488E-3,-1.3645756E-1,2.8414044E-1,-1.4438845E0,1.6562234E-1,-3.538602E-1,1.1025108E0,1.0580384E-1,-1.0177301E-1,1.6757205E0,-5.365221E-2,1.7278801E-1,6.3990853E-3,-8.5903935E-2,-6.9792904E-2,-1.237686E0,-3.336715E-1,1.7837138E-1,3.702355E-2,1.1723973E0,-4.8982376E-1,-1.04646556E-1,4.975639E-2,-6.247319E-2,-9.7182184E-2,-7.978133E-3,-8.812324E-3,2.8727695E-1,3.4367222E-2,2.3844804E-1,1.1003862E-1,1.6175653E0,-2.7079335E-1,4.3982515E0,-9.24366E-2,-1.7399956E-3,4.8328634E-2,-8.0514416E-2,-3.888779E-2,2.0913275E-1,2.265788E-2,-7.719571E-2,-5.4875474E-2,2.2297409E-1,-2.5388414E-2,-1.3084432E-1,2.4515145E-1,-2.761867E-2,-9.9897586E-2,9.223541E-2],"split_indices":[3,18,7,9,20,13,13,0,12,27,24,0,12,21,19,4,0,25,15,0,0,0,0,8,14,25,27,0,11,13,0,0,0,0,0,0,0,0,15,27,16,8,3,0,0,0,0,0,0,0,0,0,0,0,0,0,0,0,0],"split_type":[0,0,0,0,0,0,0,0,0,0,0,0,0,0,0,0,0,0,0,0,0,0,0,0,0,0,0,0,0,0,0,0,0,0,0,0,0,0,0,0,0,0,0,0,0,0,0,0,0,0,0,0,0,0,0,0,0,0,0],"sum_hessian":[1.2312614E2,5.703104E1,6.609509E1,5.195501E1,5.0760317E0,2.4178766E1,4.191633E1,1.4067885E1,3.7887123E1,2.3577585E0,2.718273E0,1.2186154E0,2.296015E1,2.6887594E1,1.5028732E1,1.2641342E1,1.4265435E0,2.6657097E0,3.5221413E1,1.1546891E0,1.2030696E0,1.0018601E0,1.7164128E0,2.324616E0,2.0635534E1,1.904724E1,7.840355E0,1.9158499E0,1.3112883E1,7.9986553E0,4.6426873E0,1.0027853E0,1.6629245E0,3.404897E1,1.172445E0,1.282038E0,1.042578E0,4.1314363E0,1.6504099E1,2.567219E0,1.648002E1,4.4742603E0,3.3660948E0,1.2078035E1,1.0348473E0,3.8752394E0,4.123416E0,2.2945168E0,1.8369193E0,9.482789E0,7.021309E0,1.5208441E0,1.0463749E0,1.340999E1,3.0700307E0,3.0066037E0,1.4676564E0,2.3370492E0,1.0290458E0],"tree_param":{"num_deleted":"0","num_feature":"30","num_nodes":"59","size_leaf_vector":"1"}},{"base_weights":[-2.6719186E-1,-6.590538E-1,5.9746895E-2,-7.358294E-1,6.76791E-2,2.2470024E-1,-6.244552E-1,-3.6081225E-1,-9.097114E-1,7.9366636E-1,-5.9177893E-1,1.4378297E0,8.533398E-2,-8.994492E-2,1.4545621E-1,-4.362931E-3,-9.3968433E-1,-2.0385145E-4,-9.3803E-1,-5.4132458E-2,1.7695236E-1,-8.507739E-2,6.4503546E-3,-2.66695E-2,2.395108E0,2.0002632E-1,-1.43508E-1,1.3842265E-1,-6.959028E-2,-4.2243516E-1,9.1804737E-1,-1.0606878E-1,-1.3333133E-2,-9.6808545E-2,-4.463538E-3,3.6399555E-1,1.9073399E-2,5.0241816E-1,-3.0678728E-1,-6.955021E-2,3.4614038E-2,1.8003987E-1,-6.7667186E-2,3.4287533E-1,2.02099E-2,3.9839763E-2,-6.63729E-2],"categories":[],"categories_nodes":[],"categories_segments":[],"categories_sizes":[],"default_left":[0,0,0,0,0,0,0,0,0,0,0,0,0,0,0,0,0,0,0,0,0,0,0,0,0,0,0,0,0,0,0,0,0,0,0,0,0,0,0,0,0,0,0,0,0,0,0],"id":22,"left_children":[1,3,5,7,9,11,13,15,17,19,21,23,25,-1,27,29,31,-1,33,-1,-1,-1,-1,-1,35,37,-1,-1,-1,39,41,-1,-1,-1,-1,-1,-1,43,45,-1,-1,-1,-1,-1,-1,-1,-1],"loss_changes":[1.5377283E1,3.0926838E0,7.6098814E0,2.893711E0,3.4029093E0,9.017592E0,2.908852E0,3.567518E0,8.488941E-1,5.3135543E0,6.9794714E-1,9.625697E0,8.92839E0,0E0,5.45952E0,4.9065013E0,5.017643E-1,0E0,8.186245E-1,0E0,0E0,0E0,0E0,0E0,9.258972E0,7.350498E0,0E0,0E0,0E0,2.0766892E0,6.8039517E0,0E0,0E0,0E0,0E0,0E0,0E0,2.5486116E1,4.837496E0,0E0,0E0,0E0,0E0,0E0,0E0,0E0,0E0],"parents":[2147483647,0,0,1,1,2,2,3,3,4,4,5,5,6,6,7,7,8,8,9,9,10,10,11,11,12,12,14,14,15,15,16,16,18,18,24,24,25,25,29,29,30,30,37,37,38,38],"right_children":[2,4,6,8,10,12,14,16,18,20,22,24,26,-1,28,30,32,-1,34,-1,-1,-1,-1,-1,36,38,-1,-1,-1,40,42,-1,-1,-1,-1,-1,-1,44,46,-1,-1,-1,-1,-1,-1,-1,-1],"split_conditions":[7.743123E-1,1.0286384E0,3.1857356E-1,-7.0356387E-1,-1.2580368E-1,-9.7647464E-1,2.4436917E0,1.1003862E-1,-2.935614E-1,-2.6882064E-1,1.4390634E-1,-1.4469765E-1,3.2956805E0,-8.994492E-2,2.8447192E0,3.1145108E-1,4.0258822E-1,-2.0385145E-4,9.648885E-1,-5.4132458E-2,1.7695236E-1,-8.507739E-2,6.4503546E-3,-2.66695E-2,5.768092E-1,1.7837138E-1,-1.43508E-1,1.3842265E-1,-6.959028E-2,1.4740648E0,5.3100187E-1,-1.0606878E-1,-1.3333133E-2,-9.6808545E-2,-4.463538E-3,3.6399555E-1,1.9073399E-2,-3.62882E0,5.567099E-1,-6.955021E-2,3.4614038E-2,1.8003987E-1,-6.7667186E-2,3.4287533E-1,2.02099E-2,3.9839763E-2,-6.63729E-2],"split_indices":[3,18,11,9,22,19,3,27,28,22,23,27,4,0,3,3,25,0,29,0,0,0,0,0,9,27,0,0,0,28,15,0,0,0,0,0,0,13,18,0,0,0,0,0,0,0,0],"split_type":[0,0,0,0,0,0,0,0,0,0,0,0,0,0,0,0,0,0,0,0,0,0,0,0,0,0,0,0,0,0,0,0,0,0,0,0,0,0,0,0,0,0,0,0,0,0,0],"sum_hessian":[1.1871998E2,5.3536465E1,6.518352E1,4.8409706E1,5.126756E0,5.306237E1,1.2121146E1,1.6309502E1,3.2100204E1,2.343414E0,2.783342E0,4.507697E0,4.8554672E1,8.807181E0,3.3139653E0,1.0717546E1,5.5919557E0,1.0036294E0,3.1096577E1,1.1776501E0,1.1657641E0,1.7832485E0,1.0000935E0,1.8805687E0,2.6271284E0,4.5956394E1,2.598278E0,1.0794362E0,2.2345293E0,7.747919E0,2.9696271E0,4.588047E0,1.0039086E0,3.0003597E1,1.092978E0,1.2627752E0,1.3643532E0,2.878839E1,1.7168005E1,5.7869515E0,1.9609674E0,1.8287901E0,1.1408371E0,1.7099044E0,2.7078484E1,5.730505E0,1.1437501E1],"tree_param":{"num_deleted":"0","num_feature":"30","num_nodes":"47","size_leaf_vector":"1"}},{"base_weights":[-2.4641207E-1,7.544833E-2,-6.3901055E-1,1.6687343E0,-3.254653E-2,-7.631809E-1,2.9345217E-1,2.7065226E-1,-1.8440286E-2,-7.470013E-1,1.3011019E-1,-9.153239E-1,-2.6143602E-1,-6.765418E-2,8.5699636E-1,-8.927273E-2,-2.3032022E-1,-3.4377164E-1,5.5126005E-1,-9.703147E-2,2.3794353E-3,1.8266508E-1,-8.2401E-2,-2.839849E-2,1.6278383E0,4.9636822E-2,-6.546586E-2,-6.582874E-1,1.2568234E0,3.0527656E0,2.1778883E-1,-4.1385552E-1,9.837442E-1,1.9919676E-1,4.5443173E-2,-1.559587E-2,-1.2795703E-1,-1.44148E-3,1.7254458E-1,4.8121825E-1,-6.6856006E-3,5.3195465E-2,-4.5375373E-2,4.668547E-2,-7.5524114E-2,1.786186E-1,-1.6239978E-2],"categories":[],"categories_nodes":[],"categories_segments":[],"categories_sizes":[],"default_left":[0,0,0,0,0,0,0,0,0,0,0,0,0,0,0,0,0,0,0,0,0,0,0,0,0,0,0,0,0,0,0,0,0,0,0,0,0,0,0,0,0,0,0,0,0,0,0],"id":23,"left_children":[1,3,5,7,9,11,13,-1,-1,15,17,19,21,-1,23,-1,25,27,29,-1,-1,31,-1,-1,33,-1,-1,35,37,39,41,43,45,-1,-1,-1,-1,-1,-1,-1,-1,-1,-1,-1,-1,-1,-1],"loss_changes":[1.4721612E1,1.1187712E1,6.2931366E0,8.434925E0,7.253172E0,3.3131046E0,4.341834E0,0E0,0E0,6.653595E-1,1.0369822E1,1.8465118E0,3.2054372E0,0E0,4.678935E0,0E0,1.5252564E0,1.3220461E1,2.218475E1,0E0,0E0,4.0636263E0,0E0,0E0,3.807826E-1,0E0,0E0,6.426527E0,2.6381903E0,1.75848E1,5.567774E0,1.8828858E0,3.566144E0,0E0,0E0,0E0,0E0,0E0,0E0,0E0,0E0,0E0,0E0,0E0,0E0,0E0,0E0],"parents":[2147483647,0,0,1,1,2,2,3,3,4,4,5,5,6,6,9,9,10,10,11,11,12,12,14,14,16,16,17,17,18,18,21,21,24,24,27,27,28,28,29,29,30,30,31,31,32,32],"right_children":[2,4,6,8,10,12,14,-1,-1,16,18,20,22,-1,24,-1,26,28,30,-1,-1,32,-1,-1,34,-1,-1,36,38,40,42,44,46,-1,-1,-1,-1,-1,-1,-1,-1,-1,-1,-1,-1,-1,-1],"split_conditions":[-4.4654366E-1,-2.7909229E0,1.2827666E0,2.3844804E-1,-4.9595252E-1,1.7242383E0,3.8204804E-1,2.7065226E-1,-1.8440286E-2,2.837447E-1,-2.019825E0,1.1464013E0,1.35452E-1,-6.765418E-2,-2.821248E-1,-8.927273E-2,-1.1253313E-1,-3.62882E0,-3.0502353E0,-9.703147E-2,2.3794353E-3,4.384149E-1,-8.2401E-2,-2.839849E-2,-2.5049233E-1,4.9636822E-2,-6.546586E-2,-3.7453694E0,5.0992435E-1,2.849432E-1,4.0871985E-2,-2.587957E-1,-6.987339E-1,1.9919676E-1,4.5443173E-2,-1.559587E-2,-1.2795703E-1,-1.44148E-3,1.7254458E-1,4.8121825E-1,-6.6856006E-3,5.3195465E-2,-4.5375373E-2,4.668547E-2,-7.5524114E-2,1.786186E-1,-1.6239978E-2],"split_indices":[13,7,6,15,10,3,3,0,0,11,9,21,17,0,4,0,5,13,13,0,0,21,0,0,16,0,0,2,21,14,26,28,11,0,0,0,0,0,0,0,0,0,0,0,0,0,0],"split_type":[0,0,0,0,0,0,0,0,0,0,0,0,0,0,0,0,0,0,0,0,0,0,0,0,0,0,0,0,0,0,0,0,0,0,0,0,0,0,0,0,0,0,0,0,0,0,0],"sum_hessian":[1.1512201E2,6.3703983E1,5.1418026E1,3.1264462E0,6.0577538E1,4.553584E1,5.882187E0,1.7089156E0,1.4175307E0,1.0567641E1,5.0009895E1,3.4308323E1,1.1227516E1,2.0879004E0,3.7942865E0,7.6751204E0,2.892521E0,2.3618202E1,2.6391695E1,3.237912E1,1.9292017E0,6.6518164E0,4.5757E0,1.7845018E0,2.0097847E0,1.00378E0,1.888741E0,2.0231459E1,3.3867438E0,2.1451943E0,2.42465E1,4.089765E0,2.562051E0,1.0014293E0,1.0083554E0,1.1878393E1,8.3530655E0,1.1732615E0,2.2134821E0,1.0247171E0,1.1204772E0,1.6660246E1,7.586253E0,1.039786E0,3.0499792E0,1.1785151E0,1.383536E0],"tree_param":{"num_deleted":"0","num_feature":"30","num_nodes":"47","size_leaf_vector":"1"}},{"base_weights":[-2.2384058E-1,7.459335E-2,-6.166528E-1,1.4997109E0,-2.504707E-2,-7.4679667E-1,2.7894107E-1,2.7846485E-1,-1.6539032E-3,-7.2943133E-1,1.21938154E-1,-9.0744585E-1,-2.4273752E-1,1.4809643E-1,-1.7486614E-1,-8.828792E-2,-2.1650131E-1,3.45746E-1,-5.855007E-1,2.315562E-3,-9.673262E-2,1.8138738E-1,-8.113538E-2,-7.547458E-2,6.9303654E-2,4.969658E-2,-6.464759E-2,7.620484E-1,-2.5464192E-1,-8.600681E-1,8.14581E-2,-3.932887E-1,9.0642077E-1,3.7146667E-1,4.392023E-2,6.504511E-2,-6.971429E-2,-1.289287E-1,-5.2104737E-3,4.93684E-2,-7.466095E-2,1.6056176E-1,-1.54486215E-2],"categories":[],"categories_nodes":[],"categories_segments":[],"categories_sizes":[],"default_left":[0,0,0,0,0,0,0,0,0,0,0,0,0,0,0,0,0,0,0,0,0,0,0,0,0,0,0,0,0,0,0,0,0,0,0,0,0,0,0,0,0,0,0],"id":24,"left_children":[1,3,5,7,9,11,13,-1,-1,15,17,19,21,-1,23,-1,25,27,29,-1,-1,31,-1,-1,-1,-1,-1,33,35,37,-1,39,41,-1,-1,-1,-1,-1,-1,-1,-1,-1,-1],"loss_changes":[1.3336513E1,9.31268E0,5.925932E0,8.394174E0,6.511494E0,3.2700405E0,4.0512123E0,0E0,0E0,6.630726E-1,8.464146E0,1.8234348E0,2.9886606E0,0E0,3.513102E0,0E0,1.4943833E0,1.0258849E1,5.664112E0,0E0,0E0,3.5089011E0,0E0,0E0,0E0,0E0,0E0,2.127511E1,7.3574214E0,3.8450918E0,0E0,1.9098215E0,2.9540162E0,0E0,0E0,0E0,0E0,0E0,0E0,0E0,0E0,0E0,0E0],"parents":[2147483647,0,0,1,1,2,2,3,3,4,4,5,5,6,6,9,9,10,10,11,11,12,12,14,14,16,16,17,17,18,18,21,21,27,27,28,28,29,29,31,31,32,32],"right_children":[2,4,6,8,10,12,14,-1,-1,16,18,20,22,-1,24,-1,26,28,30,-1,-1,32,-1,-1,-1,-1,-1,34,36,38,-1,40,42,-1,-1,-1,-1,-1,-1,-1,-1,-1,-1],"split_conditions":[-4.4654366E-1,-2.7909229E0,1.2827666E0,-1.0518823E0,-4.9595252E-1,1.7242383E0,-1.3005993E0,2.7846485E-1,-1.6539032E-3,2.837447E-1,1.3579552E0,-9.015489E-1,1.35452E-1,1.4809643E-1,3.4290975E-1,-8.828792E-2,4.6268556E-1,1.8713364E-1,4.3982515E0,2.315562E-3,-9.673262E-2,4.384149E-1,-8.113538E-2,-7.547458E-2,6.9303654E-2,4.969658E-2,-6.464759E-2,-3.62882E0,5.567099E-1,-2.6389282E0,8.14581E-2,-2.656098E-1,-6.987339E-1,3.7146667E-1,4.392023E-2,6.504511E-2,-6.971429E-2,-1.289287E-1,-5.2104737E-3,4.93684E-2,-7.466095E-2,1.6056176E-1,-1.54486215E-2],"split_indices":[13,7,6,11,10,3,10,0,0,11,4,7,17,0,22,0,8,27,3,0,0,21,0,0,0,0,0,13,18,13,0,28,11,0,0,0,0,0,0,0,0,0,0],"split_type":[0,0,0,0,0,0,0,0,0,0,0,0,0,0,0,0,0,0,0,0,0,0,0,0,0,0,0,0,0,0,0,0,0,0,0,0,0,0,0,0,0,0,0],"sum_hessian":[1.1237272E2,6.431804E1,4.805468E1,3.2848532E0,6.1033188E1,4.210265E1,5.952032E0,1.325245E0,1.9596081E0,9.852984E0,5.1180202E1,3.1320261E1,1.0782389E1,1.0109235E0,4.9411087E0,7.0289583E0,2.824026E0,3.926839E1,1.1911814E1,1.930568E0,2.9389692E1,6.565931E0,4.2164574E0,3.040207E0,1.9009017E0,1.0033466E0,1.8206795E0,2.3030224E1,1.6238167E1,1.0281275E1,1.6305395E0,3.9180017E0,2.6479294E0,1.2344503E0,2.1795773E1,5.177713E0,1.1060453E1,6.325316E0,3.9559588E0,1.0029466E0,2.915055E0,1.2865698E0,1.3613596E0],"tree_param":{"num_deleted":"0","num_feature":"30","num_nodes":"43","size_leaf_vector":"1"}},{"base_weights":[-2.0397232E-1,-5.977162E-1,7.9124704E-2,-7.0248526E-1,3.1007397E-1,2.0563813E-1,-6.8779844E-1,-3.3711326E-1,-8.889911E-1,1.3483046E-1,-4.7955656E-1,1.0275378E0,3.0861966E-2,-1.7796589E-2,-8.685943E-2,-6.753102E-1,2.528593E-1,-2.3034486E-4,-9.2319363E-1,-3.00508E-5,-6.482031E-2,1.5017805E0,-3.9993745E-1,1.1970768E0,-1.0450459E-1,-5.14594E-2,4.9264025E-2,5.8403175E-2,-8.832934E-1,1.7246786E0,-8.146045E-2,-9.60042E-2,-4.485851E-3,2.190997E0,-2.827514E-1,-6.1094474E-2,3.6195263E-3,2.1903506E-1,-7.467022E-2,-6.9695013E-3,-1.2199809E-1,-1.1177856E-2,-9.731739E-2,2.504178E-1,1.0477784E-2,2.8825475E-2,3.1555957E-1,1.7061872E-2,-5.9387427E-2,-5.472801E-2,4.7162533E-2,-3.7557058E-2,3.203698E-2],"categories":[],"categories_nodes":[],"categories_segments":[],"categories_sizes":[],"default_left":[0,0,0,0,0,0,0,0,0,0,0,0,0,0,0,0,0,0,0,0,0,0,0,0,0,0,0,0,0,0,0,0,0,0,0,0,0,0,0,0,0,0,0,0,0,0,0,0,0,0,0,0,0],"id":25,"left_children":[1,3,5,7,9,11,13,15,17,-1,19,21,23,25,-1,27,29,-1,31,-1,-1,33,35,37,39,-1,-1,-1,41,43,-1,-1,-1,45,47,-1,-1,-1,49,51,-1,-1,-1,-1,-1,-1,-1,-1,-1,-1,-1,-1,-1],"loss_changes":[1.2297331E1,4.6006927E0,6.430152E0,2.5365295E0,5.1243973E0,8.071005E0,1.1241817E0,3.2986543E0,8.150158E-1,0E0,3.1017637E-1,7.275832E0,7.631038E0,1.0193729E0,0E0,3.197147E0,1.1522336E1,0E0,7.9652596E-1,0E0,0E0,9.9814625E0,3.2107764E-1,6.5113053E0,4.726494E0,0E0,0E0,0E0,5.280714E-1,3.560977E0,0E0,0E0,0E0,9.3783455E0,5.253953E-1,0E0,0E0,0E0,1.0767387E0,5.070577E0,0E0,0E0,0E0,0E0,0E0,0E0,0E0,0E0,0E0,0E0,0E0,0E0,0E0],"parents":[2147483647,0,0,1,1,2,2,3,3,4,4,5,5,6,6,7,7,8,8,10,10,11,11,12,12,13,13,15,15,16,16,18,18,21,21,22,22,23,23,24,24,28,28,29,29,33,33,34,34,38,38,39,39],"right_children":[2,4,6,8,10,12,14,16,18,-1,20,22,24,26,-1,28,30,-1,32,-1,-1,34,36,38,40,-1,-1,-1,42,44,-1,-1,-1,46,48,-1,-1,-1,50,52,-1,-1,-1,-1,-1,-1,-1,-1,-1,-1,-1,-1,-1],"split_conditions":[7.5787556E-1,1.0286384E0,1.2769331E0,-7.0356387E-1,-2.6859987E-1,-1.440414E-1,-3.538602E-1,1.1081123E-1,-9.7647464E-1,1.3483046E-1,-4.9629846E-1,1.4323031E0,-1.0102597E0,-1.3713381E-2,-8.685943E-2,-2.5815878E0,4.600555E-1,-2.3034486E-4,9.5822525E-1,-3.00508E-5,-6.482031E-2,7.0129424E-2,-3.4100127E-1,-7.163594E-1,3.0731547E0,-5.14594E-2,4.9264025E-2,5.8403175E-2,-6.3623136E-1,-4.6672255E-2,-8.146045E-2,-9.60042E-2,-4.485851E-3,-4.7164816E-1,2.333586E-1,-6.1094474E-2,3.6195263E-3,2.1903506E-1,8.715388E-2,-2.2281666E-1,-1.2199809E-1,-1.1177856E-2,-9.731739E-2,2.504178E-1,1.0477784E-2,2.8825475E-2,3.1555957E-1,1.7061872E-2,-5.9387427E-2,-5.472801E-2,4.7162533E-2,-3.7557058E-2,3.203698E-2],"split_indices":[3,18,2,9,2,26,19,23,19,0,1,4,7,20,0,2,23,0,29,0,0,7,8,11,4,0,0,0,7,25,0,0,0,1,18,0,0,0,27,25,0,0,0,0,0,0,0,0,0,0,0,0,0],"split_type":[0,0,0,0,0,0,0,0,0,0,0,0,0,0,0,0,0,0,0,0,0,0,0,0,0,0,0,0,0,0,0,0,0,0,0,0,0,0,0,0,0,0,0,0,0,0,0,0,0,0,0,0,0],"sum_hessian":[1.0889761E2,4.5082928E1,6.3814682E1,4.0620975E1,4.461951E0,5.5406555E1,8.408129E0,1.4676561E1,2.5944414E1,1.6219059E0,2.840045E0,8.860436E0,4.654612E1,2.0201595E0,6.387969E0,9.236924E0,5.4396377E0,1.0032357E0,2.494118E1,1.0000125E0,1.8400325E0,6.6117845E0,2.248652E0,4.0251637E0,4.2520954E1,1.0196303E0,1.0005292E0,1.0529886E0,8.183935E0,2.0278957E0,3.4117417E0,2.3847685E1,1.0934945E0,4.6053495E0,2.006435E0,1.2453234E0,1.0033286E0,1.8544579E0,2.1707056E0,4.0027294E1,2.4936612E0,1.0880426E0,7.095893E0,1.0005469E0,1.0273488E0,1.9862192E0,2.6191304E0,1.0003388E0,1.0060961E0,1.1628776E0,1.007828E0,1.875775E1,2.1269545E1],"tree_param":{"num_deleted":"0","num_feature":"30","num_nodes":"53","size_leaf_vector":"1"}},{"base_weights":[-1.882091E-1,9.286789E-2,-5.8514E-1,-7.014939E-1,2.3408847E-1,-7.234859E-1,2.5109693E-1,-8.683198E-2,-1.8400392E-1,-1.8140236E-1,6.4506626E-1,-8.933596E-1,-2.4259827E-1,1.391904E-1,-1.8777928E-1,4.98229E-2,-6.266111E-2,1.2031324E0,-3.8300082E-1,3.0085334E-1,3.4630617E-1,-9.622401E-2,9.333578E-3,1.5387914E-1,-7.9937495E-2,-7.4537426E-2,5.7581514E-1,2.3900746E-1,-2.862445E-2,9.3538485E-2,-7.946875E-1,8.820065E-1,-1.1859187E-1,-2.4050312E-1,1.1409217E-1,-5.2108955E-2,1.4254278E-1,-7.958789E-2,9.632239E-2,1.0284759E-2,-1.2453083E-1,-2.2744253E-2,1.5485665E-1,-7.209209E-2,2.057196E-2,8.367614E-2,-6.151693E-2],"categories":[],"categories_nodes":[],"categories_segments":[],"categories_sizes":[],"default_left":[0,0,0,0,0,0,0,0,0,0,0,0,0,0,0,0,0,0,0,0,0,0,0,0,0,0,0,0,0,0,0,0,0,0,0,0,0,0,0,0,0,0,0,0,0,0,0],"id":26,"left_children":[1,3,5,7,9,11,13,-1,15,17,19,21,23,-1,25,-1,-1,27,29,-1,31,-1,-1,33,-1,-1,35,-1,-1,37,39,41,43,45,-1,-1,-1,-1,-1,-1,-1,-1,-1,-1,-1,-1,-1],"loss_changes":[1.2006606E1,7.296714E0,5.335537E0,6.903539E-1,9.463154E0,2.9269333E0,3.799257E0,0E0,1.4202485E0,8.27554E0,1.8542519E1,1.9971886E0,2.6435819E0,0E0,2.9771297E0,0E0,0E0,7.4018025E0,5.0177546E0,0E0,6.518323E0,0E0,0E0,3.1969543E0,0E0,0E0,3.622243E0,0E0,0E0,1.0492521E1,5.6383104E0,9.288469E0,3.0138233E0,3.0132337E0,0E0,0E0,0E0,0E0,0E0,0E0,0E0,0E0,0E0,0E0,0E0,0E0,0E0],"parents":[2147483647,0,0,1,1,2,2,3,3,4,4,5,5,6,6,8,8,9,9,10,10,11,11,12,12,14,14,17,17,18,18,20,20,23,23,26,26,29,29,30,30,31,31,32,32,33,33],"right_children":[2,4,6,8,10,12,14,-1,16,18,20,22,24,-1,26,-1,-1,28,30,-1,32,-1,-1,34,-1,-1,36,-1,-1,38,40,42,44,46,-1,-1,-1,-1,-1,-1,-1,-1,-1,-1,-1,-1,-1],"split_conditions":[-4.4654366E-1,-5.3007525E-1,1.2827666E0,2.837447E-1,-8.984777E-1,1.7242383E0,-1.3768792E0,-8.683198E-2,-3.6587957E-2,-4.7098538E-1,-3.62882E0,1.1464013E0,1.35452E-1,1.391904E-1,3.4290975E-1,4.98229E-2,-6.266111E-2,6.9802403E-1,-3.7453694E0,3.0085334E-1,1.4948894E-1,-9.622401E-2,9.333578E-3,5.0868547E-1,-7.9937495E-2,-7.4537426E-2,-8.455288E-1,2.3900746E-1,-2.862445E-2,-2.2281666E-1,-1.5738617E-1,-1.1307865E-1,5.538336E-1,-2.1616282E-1,1.1409217E-1,-5.2108955E-2,1.4254278E-1,-7.958789E-2,9.632239E-2,1.0284759E-2,-1.2453083E-1,-2.2744253E-2,1.5485665E-1,-7.209209E-2,2.057196E-2,8.367614E-2,-6.151693E-2],"split_indices":[13,10,6,11,5,3,10,0,5,25,13,21,17,0,22,0,0,4,2,0,29,0,0,8,0,0,4,0,0,25,29,20,29,26,0,0,0,0,0,0,0,0,0,0,0,0,0],"split_type":[0,0,0,0,0,0,0,0,0,0,0,0,0,0,0,0,0,0,0,0,0,0,0,0,0,0,0,0,0,0,0,0,0,0,0,0,0,0,0,0,0,0,0,0,0,0,0],"sum_hessian":[1.0612973E2,6.2580738E1,4.3548996E1,8.84734E0,5.37334E1,3.7482735E1,6.06626E0,6.177819E0,2.6695201E0,2.6997768E1,2.673563E1,2.7064472E1,1.0418264E1,1.0820584E0,4.9842014E0,1.0009662E0,1.668554E0,2.800001E0,2.4197767E1,1.9824625E0,2.4753168E1,2.5321575E1,1.7428966E0,6.507755E0,3.9105093E0,2.894459E0,2.0897427E0,1.2216626E0,1.5783384E0,1.1573684E1,1.26240835E1,1.1083959E1,1.3669209E1,5.190272E0,1.317483E0,1.0809022E0,1.0088404E0,5.7638874E0,5.8097963E0,4.477559E0,8.146524E0,4.4072075E0,6.6767507E0,4.3560276E0,9.313181E0,1.0210708E0,4.1692014E0],"tree_param":{"num_deleted":"0","num_feature":"30","num_nodes":"47","size_leaf_vector":"1"}},{"base_weights":[-1.730246E-1,9.0182565E-2,-5.609124E-1,1.2688131E0,-1.7401637E-4,-7.043024E-1,2.4321654E-1,2.0884821E0,-5.4091007E-2,2.0445022E-1,-4.1671595E-1,-8.8377374E-1,-2.229044E-1,1.37374E-1,-1.9418736E-1,3.017177E-1,3.0579118E-2,-7.39751E-2,1.2271647E0,-7.486423E-1,7.476064E-1,-9.5854245E-2,8.686033E-3,4.036626E-1,-5.63307E-1,-7.592792E-2,6.754186E-2,-3.5781497E-1,4.5862928E-1,1.9376608E0,-3.9288816E-1,-9.2966795E-1,6.5981954E-2,-1.3927437E-2,1.3915168E-1,-6.973278E-2,1.8595669E-1,2.1183126E-2,-8.320135E-2,-5.3813513E-2,6.7779295E-2,9.5209494E-2,-4.0195927E-2,2.7181128E-1,4.3719574E-3,7.636162E-3,-6.160442E-2,-1.1940526E-1,-7.6374286E-3],"categories":[],"categories_nodes":[],"categories_segments":[],"categories_sizes":[],"default_left":[0,0,0,0,0,0,0,0,0,0,0,0,0,0,0,0,0,0,0,0,0,0,0,0,0,0,0,0,0,0,0,0,0,0,0,0,0,0,0,0,0,0,0,0,0,0,0,0,0],"id":27,"left_children":[1,3,5,7,9,11,13,15,-1,17,19,21,23,-1,25,-1,-1,27,29,31,33,-1,-1,35,37,-1,-1,39,41,43,45,47,-1,-1,-1,-1,-1,-1,-1,-1,-1,-1,-1,-1,-1,-1,-1,-1,-1],"loss_changes":[1.0600264E1,6.647903E0,5.003789E0,7.7229295E0,5.1120377E0,2.8981876E0,3.7706425E0,4.482662E0,0E0,1.154323E1,8.195224E0,1.9526558E0,2.5876524E0,0E0,3.454004E0,0E0,0E0,5.0857596E0,1.0733015E1,4.6607456E0,2.9824908E0,0E0,0E0,8.475008E0,1.7567208E0,0E0,0E0,4.4356265E0,5.375357E0,9.031849E0,4.106689E-1,3.1757202E0,0E0,0E0,0E0,0E0,0E0,0E0,0E0,0E0,0E0,0E0,0E0,0E0,0E0,0E0,0E0,0E0,0E0],"parents":[2147483647,0,0,1,1,2,2,3,3,4,4,5,5,6,6,7,7,9,9,10,10,11,11,12,12,14,14,17,17,18,18,19,19,20,20,23,23,24,24,27,27,28,28,29,29,30,30,31,31],"right_children":[2,4,6,8,10,12,14,16,-1,18,20,22,24,-1,26,-1,-1,28,30,32,34,-1,-1,36,38,-1,-1,40,42,44,46,48,-1,-1,-1,-1,-1,-1,-1,-1,-1,-1,-1,-1,-1,-1,-1,-1,-1],"split_conditions":[-4.4654366E-1,-2.7909229E0,1.2827666E0,-9.359836E-1,8.7882286E-1,1.7242383E0,1.443008E0,-1.0518823E0,-5.4091007E-2,3.6903316E-1,4.1357336E0,1.1464013E0,-7.2904944E-2,1.37374E-1,-1.948551E-1,3.017177E-1,